{"learner":{"attributes":{"scikit_learn":"{\"_estimator_type\": \"regressor\"}"},"feature_names":["SOLID_PLAYER_COUNT","BIG_3_EFF_SUM","ACTIVE_ROSTER_PTS","ACTIVE_ROSTER_EFF","ACTIVE_ROSTER_STL","ACTIVE_ROSTER_BLK","ROSTER_SCORING_VARIANCE","TEAM_PTS_last_5","TEAM_PTS_season","TEAM_AST_last_5","TEAM_REB_last_5","TEAM_3PT_PCT_last_5","TEAM_3PT_PCT_season","TEAM_PTS_ALLOWED_last_5","TEAM_PTS_ALLOWED_season","OPP_BIG_3_EFF_SUM","OPP_ROSTER_SCORING_VARIANCE","OPP_TEAM_PTS_last_5","OPP_TEAM_3PT_PCT_last_5","OPP_ACTIVE_ROSTER_STL","OPP_ACTIVE_ROSTER_BLK","OPP_PTS_ALLOWED_last_5","OPP_PTS_ALLOWED_season","OPP_REB_ALLOWED_last_5","OPP_3PT_PCT_ALLOWED_season","H2H_PTS_season","MONTH"],"feature_types":["int","float","float","float","float","float","float","float","float","float","float","float","float","float","float","float","float","float","float","float","float","float","float","float","float","float","int"],"gradient_booster":{"model":{"gbtree_model_param":{"num_parallel_tree":"1","num_trees":"100"},"iteration_indptr":[0,1,2,3,4,5,6,7,8,9,10,11,12,13,14,15,16,17,18,19,20,21,22,23,24,25,26,27,28,29,30,31,32,33,34,35,36,37,38,39,40,41,42,43,44,45,46,47,48,49,50,51,52,53,54,55,56,57,58,59,60,61,62,63,64,65,66,67,68,69,70,71,72,73,74,75,76,77,78,79,80,81,82,83,84,85,86,87,88,89,90,91,92,93,94,95,96,97,98,99,100],"tree_info":[0,0,0,0,0,0,0,0,0,0,0,0,0,0,0,0,0,0,0,0,0,0,0,0,0,0,0,0,0,0,0,0,0,0,0,0,0,0,0,0,0,0,0,0,0,0,0,0,0,0,0,0,0,0,0,0,0,0,0,0,0,0,0,0,0,0,0,0,0,0,0,0,0,0,0,0,0,0,0,0,0,0,0,0,0,0,0,0,0,0,0,0,0,0,0,0,0,0,0,0],"trees":[{"base_weights":[-7.2387466E-3,-5.8637795E0,2.660668E0,-4.925393E-2,-3.614719E-1,-1.2539776E-2,2.1658936E-1],"categories":[],"categories_nodes":[],"categories_segments":[],"categories_sizes":[],"default_left":[0,0,0,0,0,0,0],"id":0,"left_children":[1,3,5,-1,-1,-1,-1],"loss_changes":[2.8933108E3,2.3578711E2,6.437149E2,0E0,0E0,0E0,0E0],"parents":[2147483647,0,0,1,1,2,2],"right_children":[2,4,6,-1,-1,-1,-1],"split_conditions":[9.8E0,3.8081818E1,7.2054048E0,-4.925393E-2,-3.614719E-1,-1.2539776E-2,2.1658936E-1],"split_indices":[9,15,4,0,0,0,0],"split_type":[0,0,0,0,0,0,0],"sum_hessian":[1.45E2,3.8E1,1.07E2,1.6E1,2.2E1,4.5E1,6.2E1],"tree_param":{"num_deleted":"0","num_feature":"27","num_nodes":"7","size_leaf_vector":"1"}},{"base_weights":[7.5597066E-1,-1.7966157E0,2.5146338E-1,-1.9397639E-1,1.7244479E-1],"categories":[],"categories_nodes":[],"categories_segments":[],"categories_sizes":[],"default_left":[0,0,0,0,0],"id":1,"left_children":[1,3,-1,-1,-1],"loss_changes":[1.8637715E3,1.4808116E3,0E0,0E0,0E0],"parents":[2147483647,0,0,1,1],"right_children":[2,4,-1,-1,-1],"split_conditions":[5.35E1,2.4941725E-1,2.5146338E-1,-1.9397639E-1,1.7244479E-1],"split_indices":[25,12,0,0,0],"split_type":[0,0,0,0,0],"sum_hessian":[1.34E2,9.1E1,4.3E1,6.9E1,2.2E1],"tree_param":{"num_deleted":"0","num_feature":"27","num_nodes":"5","size_leaf_vector":"1"}},{"base_weights":[5.557769E-1,-1.7397689E0,4.4718876E0,-1.24342136E-1,5.0202083E-2,3.0282578E-1,1.9431105E-2],"categories":[],"categories_nodes":[],"categories_segments":[],"categories_sizes":[],"default_left":[0,0,0,0,0,0,0],"id":2,"left_children":[1,3,5,-1,-1,-1,-1],"loss_changes":[1.6236398E3,2.9125067E2,3.73531E2,0E0,0E0,0E0,0E0],"parents":[2147483647,0,0,1,1,2,2],"right_children":[2,4,6,-1,-1,-1,-1],"split_conditions":[5.35E1,2.546917E-1,5.44E1,-1.24342136E-1,5.0202083E-2,3.0282578E-1,1.9431105E-2],"split_indices":[25,12,13,0,0,0,0],"split_type":[0,0,0,0,0,0,0],"sum_hessian":[1.43E2,9.7E1,4.6E1,7.8E1,1.9E1,2.6E1,2E1],"tree_param":{"num_deleted":"0","num_feature":"27","num_nodes":"7","size_leaf_vector":"1"}},{"base_weights":[9.2512465E-1,-2.823763E0,2.9463458E-1,-2.7224237E-1,-1.3615193E-2],"categories":[],"categories_nodes":[],"categories_segments":[],"categories_sizes":[],"default_left":[0,0,0,0,0],"id":3,"left_children":[1,3,-1,-1,-1],"loss_changes":[3.557613E3,7.136397E2,0E0,0E0,0E0],"parents":[2147483647,0,0,1,1],"right_children":[2,4,-1,-1,-1],"split_conditions":[5.2006546E1,4.5333332E1,2.9463458E-1,-2.7224237E-1,-1.3615193E-2],"split_indices":[2,22,0,0,0],"split_type":[0,0,0,0,0],"sum_hessian":[1.53E2,9.2E1,6.1E1,3.4E1,5.8E1],"tree_param":{"num_deleted":"0","num_feature":"27","num_nodes":"5","size_leaf_vector":"1"}},{"base_weights":[-1.0857855E-1,-5.5945115E0,2.577011E0,-3.3862317E-1,-6.608845E-2,2.6807785E-2,2.6141772E-1],"categories":[],"categories_nodes":[],"categories_segments":[],"categories_sizes":[],"default_left":[0,0,0,0,0,0,0],"id":4,"left_children":[1,3,5,-1,-1,-1,-1],"loss_changes":[2.6928333E3,1.14858154E2,6.037252E2,0E0,0E0,0E0,0E0],"parents":[2147483647,0,0,1,1,2,2],"right_children":[2,4,6,-1,-1,-1,-1],"split_conditions":[4.7117645E1,8.96014E0,1.086337E1,-3.3862317E-1,-6.608845E-2,2.6807785E-2,2.6141772E-1],"split_indices":[8,6,6,0,0,0,0],"split_type":[0,0,0,0,0,0,0],"sum_hessian":[1.43E2,4E1,1.03E2,2.2E1,1.8E1,7.2E1,3.1E1],"tree_param":{"num_deleted":"0","num_feature":"27","num_nodes":"7","size_leaf_vector":"1"}},{"base_weights":[-3.1191117E-1,-2.3185055E-1,1.2849132E0,-5.3790428E-2,1.7224531E-1],"categories":[],"categories_nodes":[],"categories_segments":[],"categories_sizes":[],"default_left":[0,0,0,0,0],"id":5,"left_children":[1,-1,3,-1,-1],"loss_changes":[1.2620753E3,0E0,7.699737E2,0E0,0E0],"parents":[2147483647,0,0,2,2],"right_children":[2,-1,4,-1,-1],"split_conditions":[9.6E0,-2.3185055E-1,1.352381E0,-5.3790428E-2,1.7224531E-1],"split_indices":[9,0,5,0,0],"split_type":[0,0,0,0,0],"sum_hessian":[1.45E2,2.9E1,1.16E2,6E1,5.6E1],"tree_param":{"num_deleted":"0","num_feature":"27","num_nodes":"5","size_leaf_vector":"1"}},{"base_weights":[-1.5166113E-1,-3.4674573E-1,2.9088008E0,-6.635589E-2,2.1359661E-1],"categories":[],"categories_nodes":[],"categories_segments":[],"categories_sizes":[],"default_left":[0,0,0,0,0],"id":6,"left_children":[1,-1,3,-1,-1],"loss_changes":[3.8120938E3,0E0,8.496443E2,0E0,0E0],"parents":[2147483647,0,0,2,2],"right_children":[2,-1,4,-1,-1],"split_conditions":[4.6E1,-3.4674573E-1,4.80625E1,-6.635589E-2,2.1359661E-1],"split_indices":[7,0,8,0,0],"split_type":[0,0,0,0,0],"sum_hessian":[1.44E2,3.7E1,1.07E2,2.6E1,8.1E1],"tree_param":{"num_deleted":"0","num_feature":"27","num_nodes":"5","size_leaf_vector":"1"}},{"base_weights":[4.043741E-1,-4.938097E0,2.8725693E0,-4.7410663E-2,-2.912204E-1,-4.460153E-2,1.854655E-1],"categories":[],"categories_nodes":[],"categories_segments":[],"categories_sizes":[],"default_left":[0,0,0,0,0,0,0],"id":7,"left_children":[1,3,5,-1,-1,-1,-1],"loss_changes":[2.4837405E3,9.4948364E1,4.6904297E2,0E0,0E0,0E0,0E0],"parents":[2147483647,0,0,1,1,2,2],"right_children":[2,4,6,-1,-1,-1,-1],"split_conditions":[9.8E0,3E0,4.0266666E1,-4.7410663E-2,-2.912204E-1,-4.460153E-2,1.854655E-1],"split_indices":[9,26,3,0,0,0,0],"split_type":[0,0,0,0,0,0,0],"sum_hessian":[1.47E2,4E1,1.07E2,1.5E1,2.5E1,1.9E1,8.8E1],"tree_param":{"num_deleted":"0","num_feature":"27","num_nodes":"7","size_leaf_vector":"1"}},{"base_weights":[-1.0923706E0,-3.3260872E0,2.702871E0,-2.3372315E-1,1.160707E-1,2.8061349E-2,1.7003518E-1],"categories":[],"categories_nodes":[],"categories_segments":[],"categories_sizes":[],"default_left":[0,0,0,0,0,0,0],"id":8,"left_children":[1,3,5,-1,-1,-1,-1],"loss_changes":[1.5792095E3,1.0798701E3,6.5471436E1,0E0,0E0,0E0,0E0],"parents":[2147483647,0,0,1,1,2,2],"right_children":[2,4,6,-1,-1,-1,-1],"split_conditions":[5.38E1,9.149038E0,4.8285713E1,-2.3372315E-1,1.160707E-1,2.8061349E-2,1.7003518E-1],"split_indices":[7,4,14,0,0,0,0],"split_type":[0,0,0,0,0,0,0],"sum_hessian":[1.45E2,9.3E1,5.2E1,7.8E1,1.5E1,2.2E1,3E1],"tree_param":{"num_deleted":"0","num_feature":"27","num_nodes":"7","size_leaf_vector":"1"}},{"base_weights":[5.230974E-1,-2.1152215E0,2.3342283E-1,-1.8846132E-1,8.774406E-2],"categories":[],"categories_nodes":[],"categories_segments":[],"categories_sizes":[],"default_left":[0,0,0,0,0],"id":9,"left_children":[1,3,-1,-1,-1],"loss_changes":[1.9608711E3,8.5123596E2,0E0,0E0,0E0],"parents":[2147483647,0,0,1,1],"right_children":[2,4,-1,-1,-1],"split_conditions":[5.3E1,8.098864E0,2.3342283E-1,-1.8846132E-1,8.774406E-2],"split_indices":[7,4,0,0,0],"split_type":[0,0,0,0,0],"sum_hessian":[1.41E2,9.2E1,4.9E1,6.5E1,2.7E1],"tree_param":{"num_deleted":"0","num_feature":"27","num_nodes":"5","size_leaf_vector":"1"}},{"base_weights":[-0E0,-3.7629888E0,2.3525047E0,-2.5746265E-1,2.4876328E-2,-9.847135E-3,1.6631217E-1],"categories":[],"categories_nodes":[],"categories_segments":[],"categories_sizes":[],"default_left":[0,0,0,0,0,0,0],"id":10,"left_children":[1,3,5,-1,-1,-1,-1],"loss_changes":[1.5858164E3,4.634173E2,2.8930536E2,0E0,0E0,0E0,0E0],"parents":[2147483647,0,0,1,1,2,2],"right_children":[2,4,6,-1,-1,-1,-1],"split_conditions":[3.1444033E1,5.1333332E1,7.0099206E0,-2.5746265E-1,2.4876328E-2,-9.847135E-3,1.6631217E-1],"split_indices":[1,22,4,0,0,0,0],"split_type":[0,0,0,0,0,0,0],"sum_hessian":[1.39E2,4.9E1,9E1,3.4E1,1.5E1,2.9E1,6.1E1],"tree_param":{"num_deleted":"0","num_feature":"27","num_nodes":"7","size_leaf_vector":"1"}},{"base_weights":[7.2199784E-2,-4.22561E0,1.7754183E0,-2.5458765E-1,-4.0863648E-2,2.1640031E-1,2.573711E-2],"categories":[],"categories_nodes":[],"categories_segments":[],"categories_sizes":[],"default_left":[0,0,0,0,0,0,0],"id":11,"left_children":[1,3,5,-1,-1,-1,-1],"loss_changes":[1.3920127E3,7.027777E1,3.882473E2,0E0,0E0,0E0,0E0],"parents":[2147483647,0,0,1,1,2,2],"right_children":[2,4,6,-1,-1,-1,-1],"split_conditions":[2.0833333E-1,3.92E1,7.222222E-1,-2.5458765E-1,-4.0863648E-2,2.1640031E-1,2.573711E-2],"split_indices":[12,23,20,0,0,0,0],"split_type":[0,0,0,0,0,0,0],"sum_hessian":[1.5E2,3.4E1,1.16E2,1.9E1,1.5E1,2.2E1,9.4E1],"tree_param":{"num_deleted":"0","num_feature":"27","num_nodes":"7","size_leaf_vector":"1"}},{"base_weights":[1.6521162E-1,-4.599413E0,2.385685E0,-2.8846432E-2,-2.9800037E-1,9.858956E-3,1.6251443E-1],"categories":[],"categories_nodes":[],"categories_segments":[],"categories_sizes":[],"default_left":[0,0,0,0,0,0,0],"id":12,"left_children":[1,3,5,-1,-1,-1,-1],"loss_changes":[2.0581128E3,2.640171E2,2.3350385E2,0E0,0E0,0E0,0E0],"parents":[2147483647,0,0,1,1,2,2],"right_children":[2,4,6,-1,-1,-1,-1],"split_conditions":[3.930981E1,-6.168831E-2,7.180128E0,-2.8846432E-2,-2.9800037E-1,9.858956E-3,1.6251443E-1],"split_indices":[2,6,4,0,0,0,0],"split_type":[0,0,0,0,0,0,0],"sum_hessian":[1.54E2,4.2E1,1.12E2,1.8E1,2.4E1,3.9E1,7.3E1],"tree_param":{"num_deleted":"0","num_feature":"27","num_nodes":"7","size_leaf_vector":"1"}},{"base_weights":[7.1266645E-1,-1.5149523E0,5.1320524E0,-2.1453717E-1,4.223221E-2,6.533098E-2,3.0172163E-1],"categories":[],"categories_nodes":[],"categories_segments":[],"categories_sizes":[],"default_left":[0,0,0,0,0,0,0],"id":13,"left_children":[1,3,5,-1,-1,-1,-1],"loss_changes":[1.7539562E3,8.815481E2,3.8632324E1,0E0,0E0,0E0,0E0],"parents":[2147483647,0,0,1,1,2,2],"right_children":[2,4,6,-1,-1,-1,-1],"split_conditions":[5.7122944E1,4.72E1,6.314316E1,-2.1453717E-1,4.223221E-2,6.533098E-2,3.0172163E-1],"split_indices":[2,7,2,0,0,0,0],"split_type":[0,0,0,0,0,0,0],"sum_hessian":[1.42E2,1.03E2,3.9E1,4E1,6.3E1,1.7E1,2.2E1],"tree_param":{"num_deleted":"0","num_feature":"27","num_nodes":"7","size_leaf_vector":"1"}},{"base_weights":[9.080247E-1,-2.4971528E0,3.9112735E0,-2.5046203E-1,3.5837255E-2,2.4294047E-1,-4.270862E-3],"categories":[],"categories_nodes":[],"categories_segments":[],"categories_sizes":[],"default_left":[0,0,0,0,0,0,0],"id":14,"left_children":[1,3,5,-1,-1,-1,-1],"loss_changes":[2.0068624E3,8.430909E2,3.9934863E2,0E0,0E0,0E0,0E0],"parents":[2147483647,0,0,1,1,2,2],"right_children":[2,4,6,-1,-1,-1,-1],"split_conditions":[5.12E1,1.0559254E1,6E0,-2.5046203E-1,3.5837255E-2,2.4294047E-1,-4.270862E-3],"split_indices":[7,6,26,0,0,0,0],"split_type":[0,0,0,0,0,0,0],"sum_hessian":[1.57E2,7.5E1,8.2E1,3.6E1,3.9E1,6.3E1,1.9E1],"tree_param":{"num_deleted":"0","num_feature":"27","num_nodes":"7","size_leaf_vector":"1"}},{"base_weights":[-3.266938E-1,-2.542723E-1,1.8061966E0,-1.417132E-2,2.1003404E-1],"categories":[],"categories_nodes":[],"categories_segments":[],"categories_sizes":[],"default_left":[0,0,0,0,0],"id":15,"left_children":[1,-1,3,-1,-1],"loss_changes":[1.912468E3,0E0,6.882001E2,0E0,0E0],"parents":[2147483647,0,0,2,2],"right_children":[2,-1,4,-1,-1],"split_conditions":[9.4E0,-2.542723E-1,8.516666E0,-1.417132E-2,2.1003404E-1],"split_indices":[9,0,4,0,0],"split_type":[0,0,0,0,0],"sum_hessian":[1.5E2,3.8E1,1.12E2,6.9E1,4.3E1],"tree_param":{"num_deleted":"0","num_feature":"27","num_nodes":"5","size_leaf_vector":"1"}},{"base_weights":[-5.8721745E-1,-1.8297583E0,2.5224695E-1,-2.2051816E-1,-4.1458756E-2],"categories":[],"categories_nodes":[],"categories_segments":[],"categories_sizes":[],"default_left":[0,0,0,0,0],"id":16,"left_children":[1,3,-1,-1,-1],"loss_changes":[1.3361056E3,3.089376E2,0E0,0E0,0E0],"parents":[2147483647,0,0,1,1],"right_children":[2,4,-1,-1,-1],"split_conditions":[7.603903E1,3.461111E1,2.5224695E-1,-2.2051816E-1,-4.1458756E-2],"split_indices":[3,3,0,0,0],"split_type":[0,0,0,0,0],"sum_hessian":[1.45E2,1.3E2,1.5E1,1.7E1,1.13E2],"tree_param":{"num_deleted":"0","num_feature":"27","num_nodes":"5","size_leaf_vector":"1"}},{"base_weights":[3.2018912E-1,4.4854527E0,-1.5739262E0,2.8524712E-1,2.3261027E-2,-1.5310395E-1,7.629311E-2],"categories":[],"categories_nodes":[],"categories_segments":[],"categories_sizes":[],"default_left":[0,0,0,0,0,0,0],"id":17,"left_children":[1,3,5,-1,-1,-1,-1],"loss_changes":[1.4222042E3,2.1529602E2,6.762152E2,0E0,0E0,0E0,0E0],"parents":[2147483647,0,0,1,1,2,2],"right_children":[2,4,6,-1,-1,-1,-1],"split_conditions":[7.722222E-1,8E-1,5.4796703E1,2.8524712E-1,2.3261027E-2,-1.5310395E-1,7.629311E-2],"split_indices":[20,16,2,0,0,0,0],"split_type":[0,0,0,0,0,0,0],"sum_hessian":[1.42E2,3.6E1,1.06E2,2.1E1,1.5E1,7.2E1,3.4E1],"tree_param":{"num_deleted":"0","num_feature":"27","num_nodes":"7","size_leaf_vector":"1"}},{"base_weights":[-3.706624E-1,-2.9909112E0,3.7310896E0,-1.3271297E-2,-2.5637826E-1,2.2117744E-1,3.1513285E-2],"categories":[],"categories_nodes":[],"categories_segments":[],"categories_sizes":[],"default_left":[0,0,0,0,0,0,0],"id":18,"left_children":[1,3,5,-1,-1,-1,-1],"loss_changes":[1.8560837E3,5.7302277E2,8.519513E1,0E0,0E0,0E0,0E0],"parents":[2147483647,0,0,1,1,2,2],"right_children":[2,4,6,-1,-1,-1,-1],"split_conditions":[5.3E1,3.8575E1,2.646154E-1,-1.3271297E-2,-2.5637826E-1,2.2117744E-1,3.1513285E-2],"split_indices":[7,15,12,0,0,0,0],"split_type":[0,0,0,0,0,0,0],"sum_hessian":[1.32E2,8.4E1,4.8E1,4.7E1,3.7E1,3.2E1,1.6E1],"tree_param":{"num_deleted":"0","num_feature":"27","num_nodes":"7","size_leaf_vector":"1"}},{"base_weights":[3.470787E-1,-2.0077322E-1,1.7148017E0,-4.87456E-2,1.4834587E-1],"categories":[],"categories_nodes":[],"categories_segments":[],"categories_sizes":[],"default_left":[0,0,0,0,0],"id":19,"left_children":[1,-1,3,-1,-1],"loss_changes":[1.0900938E3,0E0,5.1786694E2,0E0,0E0],"parents":[2147483647,0,0,2,2],"right_children":[2,-1,4,-1,-1],"split_conditions":[4.5666668E1,-2.0077322E-1,6.3333335E0,-4.87456E-2,1.4834587E-1],"split_indices":[8,0,19,0,0],"split_type":[0,0,0,0,0],"sum_hessian":[1.4E2,2.4E1,1.16E2,3.8E1,7.8E1],"tree_param":{"num_deleted":"0","num_feature":"27","num_nodes":"5","size_leaf_vector":"1"}},{"base_weights":[-6.602733E-1,-3.2683182E0,3.8816144E0,7.6875277E-3,-1.9617915E-1,2.788363E-1,-3.2423407E-2],"categories":[],"categories_nodes":[],"categories_segments":[],"categories_sizes":[],"default_left":[0,0,0,0,0,0,0],"id":20,"left_children":[1,3,5,-1,-1,-1,-1],"loss_changes":[2.1365396E3,2.6697937E2,5.9174744E2,0E0,0E0,0E0,0E0],"parents":[2147483647,0,0,1,1,2,2],"right_children":[2,4,6,-1,-1,-1,-1],"split_conditions":[5.4796703E1,2E0,6E0,7.6875277E-3,-1.9617915E-1,2.788363E-1,-3.2423407E-2],"split_indices":[2,26,26,0,0,0,0],"split_type":[0,0,0,0,0,0,0],"sum_hessian":[1.39E2,9.2E1,4.7E1,1.7E1,7.5E1,3.1E1,1.6E1],"tree_param":{"num_deleted":"0","num_feature":"27","num_nodes":"7","size_leaf_vector":"1"}},{"base_weights":[8.4919804E-1,-1.9086086E0,3.3898373E0,-1.6960268E-1,1.3144763E-1,2.1999477E-1,-3.9718624E-2],"categories":[],"categories_nodes":[],"categories_segments":[],"categories_sizes":[],"default_left":[0,0,0,0,0,0,0],"id":21,"left_children":[1,3,5,-1,-1,-1,-1],"loss_changes":[1.3640388E3,8.320425E2,4.9191187E2,0E0,0E0,0E0,0E0],"parents":[2147483647,0,0,1,1,2,2],"right_children":[2,4,6,-1,-1,-1,-1],"split_conditions":[4.8E1,5.5416668E1,2.7710843E-1,-1.6960268E-1,1.3144763E-1,2.1999477E-1,-3.9718624E-2],"split_indices":[25,14,11,0,0,0,0],"split_type":[0,0,0,0,0,0,0],"sum_hessian":[1.56E2,7.7E1,7.9E1,6.2E1,1.5E1,6.3E1,1.6E1],"tree_param":{"num_deleted":"0","num_feature":"27","num_nodes":"7","size_leaf_vector":"1"}},{"base_weights":[1.7231522E-2,-2.0501935E0,1.8832383E-1,2.3692558E-2,-1.3518593E-1],"categories":[],"categories_nodes":[],"categories_segments":[],"categories_sizes":[],"default_left":[0,0,0,0,0],"id":22,"left_children":[1,3,-1,-1,-1],"loss_changes":[1.4816257E3,2.3074475E2,0E0,0E0,0E0],"parents":[2147483647,0,0,1,1],"right_children":[2,4,-1,-1,-1],"split_conditions":[5.4796703E1,7.669173E-1,1.8832383E-1,2.3692558E-2,-1.3518593E-1],"split_indices":[2,20,0,0,0],"split_type":[0,0,0,0,0],"sum_hessian":[1.51E2,1.03E2,4.8E1,2.2E1,8.1E1],"tree_param":{"num_deleted":"0","num_feature":"27","num_nodes":"5","size_leaf_vector":"1"}},{"base_weights":[9.024064E-1,-1.7690122E-1,2.2335859E-1,-6.700528E-2,1.7187205E-1],"categories":[],"categories_nodes":[],"categories_segments":[],"categories_sizes":[],"default_left":[0,0,0,0,0],"id":23,"left_children":[1,3,-1,-1,-1],"loss_changes":[6.164544E2,6.7021545E2,0E0,0E0,0E0],"parents":[2147483647,0,0,1,1],"right_children":[2,4,-1,-1,-1],"split_conditions":[4.767242E1,5.642857E1,2.2335859E-1,-6.700528E-2,1.7187205E-1],"split_indices":[1,14,0,0,0],"split_type":[0,0,0,0,0],"sum_hessian":[1.35E2,1.18E2,1.7E1,9.9E1,1.9E1],"tree_param":{"num_deleted":"0","num_feature":"27","num_nodes":"5","size_leaf_vector":"1"}},{"base_weights":[1.8244788E-1,-1.9341732E0,3.3215828E0,-1.5414304E-1,4.602879E-2,1.23067275E-2,2.0339337E-1],"categories":[],"categories_nodes":[],"categories_segments":[],"categories_sizes":[],"default_left":[0,0,0,0,0,0,0],"id":24,"left_children":[1,3,5,-1,-1,-1,-1],"loss_changes":[1.226197E3,4.2291516E2,1.4550287E2,0E0,0E0,0E0,0E0],"parents":[2147483647,0,0,1,1,2,2],"right_children":[2,4,6,-1,-1,-1,-1],"split_conditions":[5.3E1,2.4623115E-1,4.704208E1,-1.5414304E-1,4.602879E-2,1.23067275E-2,2.0339337E-1],"split_indices":[7,24,3,0,0,0,0],"split_type":[0,0,0,0,0,0,0],"sum_hessian":[1.45E2,9.1E1,5.4E1,6.4E1,2.7E1,1.6E1,3.8E1],"tree_param":{"num_deleted":"0","num_feature":"27","num_nodes":"7","size_leaf_vector":"1"}},{"base_weights":[-1.23885006E-1,-1.8922837E0,2.440261E-1,-1.4072387E-1,2.8885255E-2],"categories":[],"categories_nodes":[],"categories_segments":[],"categories_sizes":[],"default_left":[0,0,0,0,0],"id":25,"left_children":[1,3,-1,-1,-1],"loss_changes":[1.6242335E3,3.422596E2,0E0,0E0,0E0],"parents":[2147483647,0,0,1,1],"right_children":[2,4,-1,-1,-1],"split_conditions":[3E0,5.2006546E1,2.440261E-1,-1.4072387E-1,2.8885255E-2],"split_indices":[0,2,0,0,0],"split_type":[0,0,0,0,0],"sum_hessian":[1.43E2,1.15E2,2.8E1,8.2E1,3.3E1],"tree_param":{"num_deleted":"0","num_feature":"27","num_nodes":"5","size_leaf_vector":"1"}},{"base_weights":[4.805669E-2,-4.4977603E0,2.2491179E0,-1.5733032E-2,-2.8516334E-1,1.5689379E-2,1.5650834E-1],"categories":[],"categories_nodes":[],"categories_segments":[],"categories_sizes":[],"default_left":[0,0,0,0,0,0,0],"id":26,"left_children":[1,3,5,-1,-1,-1,-1],"loss_changes":[1.8710101E3,2.6569812E2,1.9175708E2,0E0,0E0,0E0,0E0],"parents":[2147483647,0,0,1,1,2,2],"right_children":[2,4,6,-1,-1,-1,-1],"split_conditions":[4.7117645E1,3.5333332E1,2.2E-1,-1.5733032E-2,-2.8516334E-1,1.5689379E-2,1.5650834E-1],"split_indices":[8,15,18,0,0,0,0],"split_type":[0,0,0,0,0,0,0],"sum_hessian":[1.47E2,4.1E1,1.06E2,1.5E1,2.6E1,4.2E1,6.4E1],"tree_param":{"num_deleted":"0","num_feature":"27","num_nodes":"7","size_leaf_vector":"1"}},{"base_weights":[-8.090424E-1,-2.5020966E-1,9.4254446E-1,9.465051E-2,-6.691148E-2],"categories":[],"categories_nodes":[],"categories_segments":[],"categories_sizes":[],"default_left":[0,0,0,0,0],"id":27,"left_children":[1,-1,3,-1,-1],"loss_changes":[1.3622804E3,0E0,3.5037646E2,0E0,0E0],"parents":[2147483647,0,0,2,2],"right_children":[2,-1,4,-1,-1],"split_conditions":[9.6E0,-2.5020966E-1,1.42E1,9.465051E-2,-6.691148E-2],"split_indices":[9,0,9,0,0],"split_type":[0,0,0,0,0],"sum_hessian":[1.52E2,3.4E1,1.18E2,8.6E1,3.2E1],"tree_param":{"num_deleted":"0","num_feature":"27","num_nodes":"5","size_leaf_vector":"1"}},{"base_weights":[1.0251697E-1,-3.7170517E0,1.4306855E0,-2.2324704E-1,-4.08281E-2,-2.6050974E-2,1.4483973E-1],"categories":[],"categories_nodes":[],"categories_segments":[],"categories_sizes":[],"default_left":[0,0,0,0,0,0,0],"id":28,"left_children":[1,3,5,-1,-1,-1,-1],"loss_changes":[9.817066E2,3.0262695E1,4.4174347E2,0E0,0E0,0E0,0E0],"parents":[2147483647,0,0,1,1,2,2],"right_children":[2,4,6,-1,-1,-1,-1],"split_conditions":[9.4E0,4.452E1,2.2689076E-1,-2.2324704E-1,-4.08281E-2,-2.6050974E-2,1.4483973E-1],"split_indices":[9,8,11,0,0,0,0],"split_type":[0,0,0,0,0,0,0],"sum_hessian":[1.53E2,3E1,1.23E2,1.5E1,1.5E1,5.8E1,6.5E1],"tree_param":{"num_deleted":"0","num_feature":"27","num_nodes":"7","size_leaf_vector":"1"}},{"base_weights":[-3.439123E-1,-2.1754987E0,3.1030605E0,-1.6405867E-1,9.700724E-2,2.5364151E-2,2.541865E-1],"categories":[],"categories_nodes":[],"categories_segments":[],"categories_sizes":[],"default_left":[0,0,0,0,0,0,0],"id":29,"left_children":[1,3,5,-1,-1,-1,-1],"loss_changes":[1.1884291E3,6.792781E2,2.8216223E2,0E0,0E0,0E0,0E0],"parents":[2147483647,0,0,1,1,2,2],"right_children":[2,4,6,-1,-1,-1,-1],"split_conditions":[5.4796703E1,5.6125E1,7.4313324E1,-1.6405867E-1,9.700724E-2,2.5364151E-2,2.541865E-1],"split_indices":[2,8,3,0,0,0,0],"split_type":[0,0,0,0,0,0,0],"sum_hessian":[1.47E2,1.01E2,4.6E1,8.3E1,1.8E1,3.1E1,1.5E1],"tree_param":{"num_deleted":"0","num_feature":"27","num_nodes":"7","size_leaf_vector":"1"}},{"base_weights":[9.9038225E-1,-1.0733831E0,4.1114473E0,-1.73936E-1,3.835566E-2,6.4961733E-3,2.5480428E-1],"categories":[],"categories_nodes":[],"categories_segments":[],"categories_sizes":[],"default_left":[0,0,0,0,0,0,0],"id":30,"left_children":[1,3,5,-1,-1,-1,-1],"loss_changes":[1.1862959E3,5.7847064E2,2.6379797E2,0E0,0E0,0E0,0E0],"parents":[2147483647,0,0,1,1,2,2],"right_children":[2,4,6,-1,-1,-1,-1],"split_conditions":[5.35E1,3.4E1,7.1955338E0,-1.73936E-1,3.835566E-2,6.4961733E-3,2.5480428E-1],"split_indices":[25,10,4,0,0,0,0],"split_type":[0,0,0,0,0,0,0],"sum_hessian":[1.5E2,9.8E1,5.2E1,3.5E1,6.3E1,1.5E1,3.7E1],"tree_param":{"num_deleted":"0","num_feature":"27","num_nodes":"7","size_leaf_vector":"1"}},{"base_weights":[-2.3505229E-1,-2.4352346E-1,1.3872867E0,-4.1191936E-2,1.20367646E-1],"categories":[],"categories_nodes":[],"categories_segments":[],"categories_sizes":[],"default_left":[0,0,0,0,0],"id":31,"left_children":[1,-1,3,-1,-1],"loss_changes":[1.2816909E3,0E0,3.2995218E2,0E0,0E0],"parents":[2147483647,0,0,2,2],"right_children":[2,-1,4,-1,-1],"split_conditions":[9E0,-2.4352346E-1,6.7E0,-4.1191936E-2,1.20367646E-1],"split_indices":[9,0,19,0,0],"split_type":[0,0,0,0,0],"sum_hessian":[1.32E2,2.4E1,1.08E2,3.5E1,7.3E1],"tree_param":{"num_deleted":"0","num_feature":"27","num_nodes":"5","size_leaf_vector":"1"}},{"base_weights":[3.852779E-1,-2.3758323E0,1.790282E0,-1.8847664E-1,-8.490243E-3,-4.161995E-2,1.626437E-1],"categories":[],"categories_nodes":[],"categories_segments":[],"categories_sizes":[],"default_left":[0,0,0,0,0,0,0],"id":32,"left_children":[1,3,5,-1,-1,-1,-1],"loss_changes":[7.2457886E2,1.800296E2,5.207196E2,0E0,0E0,0E0,0E0],"parents":[2147483647,0,0,1,1,2,2],"right_children":[2,4,6,-1,-1,-1,-1],"split_conditions":[3.0266666E1,3.74E1,2.1763085E-1,-1.8847664E-1,-8.490243E-3,-4.161995E-2,1.626437E-1],"split_indices":[1,23,12,0,0,0,0],"split_type":[0,0,0,0,0,0,0],"sum_hessian":[1.45E2,4.4E1,1.01E2,1.8E1,2.6E1,3.9E1,6.2E1],"tree_param":{"num_deleted":"0","num_feature":"27","num_nodes":"7","size_leaf_vector":"1"}},{"base_weights":[-7.6960325E-1,-2.9023545E0,2.0264862E0,-1.8364894E-1,1.39738275E-2,1.6027181E-1,-2.2504209E-2],"categories":[],"categories_nodes":[],"categories_segments":[],"categories_sizes":[],"default_left":[0,0,0,0,0,0,0],"id":33,"left_children":[1,3,5,-1,-1,-1,-1],"loss_changes":[1.1442059E3,2.838354E2,2.827084E2,0E0,0E0,0E0,0E0],"parents":[2147483647,0,0,1,1,2,2],"right_children":[2,4,6,-1,-1,-1,-1],"split_conditions":[5.1384617E1,5.57502E1,1.577451E0,-1.8364894E-1,1.39738275E-2,1.6027181E-1,-2.2504209E-2],"split_indices":[8,2,20,0,0,0,0],"split_type":[0,0,0,0,0,0,0],"sum_hessian":[1.52E2,8.6E1,6.6E1,6.7E1,1.9E1,4.1E1,2.5E1],"tree_param":{"num_deleted":"0","num_feature":"27","num_nodes":"7","size_leaf_vector":"1"}},{"base_weights":[-3.0489534E-1,-2.0270998E0,2.9264932E0,-2.1549013E-1,-9.261578E-3,9.6130995E-3,2.3125385E-1],"categories":[],"categories_nodes":[],"categories_segments":[],"categories_sizes":[],"default_left":[0,0,0,0,0,0,0],"id":34,"left_children":[1,3,5,-1,-1,-1,-1],"loss_changes":[1.0304248E3,4.7986688E2,2.79279E2,0E0,0E0,0E0,0E0],"parents":[2147483647,0,0,1,1,2,2],"right_children":[2,4,6,-1,-1,-1,-1],"split_conditions":[5.35E1,9.8E0,4E0,-2.1549013E-1,-9.261578E-3,9.6130995E-3,2.3125385E-1],"split_indices":[25,9,26,0,0,0,0],"split_type":[0,0,0,0,0,0,0],"sum_hessian":[1.44E2,9.9E1,4.5E1,3.2E1,6.7E1,2.6E1,1.9E1],"tree_param":{"num_deleted":"0","num_feature":"27","num_nodes":"7","size_leaf_vector":"1"}},{"base_weights":[-8.087505E-2,-2.2529316E-1,1.0069962E0,-2.1349592E-2,1.2554114E-1],"categories":[],"categories_nodes":[],"categories_segments":[],"categories_sizes":[],"default_left":[0,0,0,0,0],"id":35,"left_children":[1,-1,3,-1,-1],"loss_changes":[8.788988E2,0E0,3.405268E2,0E0,0E0],"parents":[2147483647,0,0,2,2],"right_children":[2,-1,4,-1,-1],"split_conditions":[3.6E1,-2.2529316E-1,5.38E1,-2.1349592E-2,1.2554114E-1],"split_indices":[7,0,7,0,0],"split_type":[0,0,0,0,0],"sum_hessian":[1.43E2,1.6E1,1.27E2,7.2E1,5.5E1],"tree_param":{"num_deleted":"0","num_feature":"27","num_nodes":"5","size_leaf_vector":"1"}},{"base_weights":[6.1179763E-1,-1.8411448E0,1.7696517E0,-1.4075421E-1,2.8685434E-2,1.2136543E-1,-5.664304E-2],"categories":[],"categories_nodes":[],"categories_segments":[],"categories_sizes":[],"default_left":[0,0,0,0,0,0,0],"id":36,"left_children":[1,3,5,-1,-1,-1,-1],"loss_changes":[5.56438E2,1.8741702E2,3.0062427E2,0E0,0E0,0E0,0E0],"parents":[2147483647,0,0,1,1,2,2],"right_children":[2,4,6,-1,-1,-1,-1],"split_conditions":[4.6E1,4.75E1,6.05E1,-1.4075421E-1,2.8685434E-2,1.2136543E-1,-5.664304E-2],"split_indices":[7,25,13,0,0,0,0],"split_type":[0,0,0,0,0,0,0],"sum_hessian":[1.53E2,4.5E1,1.08E2,3E1,1.5E1,9.1E1,1.7E1],"tree_param":{"num_deleted":"0","num_feature":"27","num_nodes":"7","size_leaf_vector":"1"}},{"base_weights":[-4.1599643E-1,-1.9432567E0,3.7318242E0,-1.7799692E-1,2.93443E-2,4.587086E-2,2.1925946E-1],"categories":[],"categories_nodes":[],"categories_segments":[],"categories_sizes":[],"default_left":[0,0,0,0,0,0,0],"id":37,"left_children":[1,3,5,-1,-1,-1,-1],"loss_changes":[1.1631523E3,5.806056E2,6.1781616E0,0E0,0E0,0E0,0E0],"parents":[2147483647,0,0,1,1,2,2],"right_children":[2,4,6,-1,-1,-1,-1],"split_conditions":[2.152619E1,5.1333332E1,2.696557E1,-1.7799692E-1,2.93443E-2,4.587086E-2,2.1925946E-1],"split_indices":[6,22,6,0,0,0,0],"split_type":[0,0,0,0,0,0,0],"sum_hessian":[1.41E2,1.11E2,3E1,6.3E1,4.8E1,1.5E1,1.5E1],"tree_param":{"num_deleted":"0","num_feature":"27","num_nodes":"7","size_leaf_vector":"1"}},{"base_weights":[2.9942864E-1,-1.2097152E0,2.1315351E-1,-1.43863E-1,1.2737338E-1],"categories":[],"categories_nodes":[],"categories_segments":[],"categories_sizes":[],"default_left":[0,0,0,0,0],"id":38,"left_children":[1,3,-1,-1,-1],"loss_changes":[1.06925E3,9.7394006E2,0E0,0E0,0E0],"parents":[2147483647,0,0,1,1],"right_children":[2,4,-1,-1,-1],"split_conditions":[3E0,5.4E1,2.1315351E-1,-1.43863E-1,1.2737338E-1],"split_indices":[0,7,0,0,0],"split_type":[0,0,0,0,0],"sum_hessian":[1.41E2,1.12E2,2.9E1,8.1E1,3.1E1],"tree_param":{"num_deleted":"0","num_feature":"27","num_nodes":"5","size_leaf_vector":"1"}},{"base_weights":[3.8229913E-1,-3.401981E0,1.8863134E0,-3.0487776E-2,-2.2254272E-1,1.8946376E-1,9.833667E-3],"categories":[],"categories_nodes":[],"categories_segments":[],"categories_sizes":[],"default_left":[0,0,0,0,0,0,0],"id":39,"left_children":[1,3,5,-1,-1,-1,-1],"loss_changes":[1.128552E3,1.0759613E2,4.2803854E2,0E0,0E0,0E0,0E0],"parents":[2147483647,0,0,1,1,2,2],"right_children":[2,4,6,-1,-1,-1,-1],"split_conditions":[9.6E0,4.130049E1,2.1942446E-1,-3.0487776E-2,-2.2254272E-1,1.8946376E-1,9.833667E-3],"split_indices":[9,15,12,0,0,0,0],"split_type":[0,0,0,0,0,0,0],"sum_hessian":[1.56E2,3.7E1,1.19E2,1.9E1,1.8E1,4.4E1,7.5E1],"tree_param":{"num_deleted":"0","num_feature":"27","num_nodes":"7","size_leaf_vector":"1"}},{"base_weights":[-2.2784883E-1,-1.5574132E0,2.9181428E0,7.108981E-2,-1.25293E-1,1.9395141E-1,1.1686097E-2],"categories":[],"categories_nodes":[],"categories_segments":[],"categories_sizes":[],"default_left":[0,0,0,0,0,0,0],"id":40,"left_children":[1,3,5,-1,-1,-1,-1],"loss_changes":[7.127713E2,4.0576382E2,1.0930545E2,0E0,0E0,0E0,0E0],"parents":[2147483647,0,0,1,1,2,2],"right_children":[2,4,6,-1,-1,-1,-1],"split_conditions":[5.8040478E1,4.8773994E0,4E1,7.108981E-2,-1.25293E-1,1.9395141E-1,1.1686097E-2],"split_indices":[2,4,10,0,0,0,0],"split_type":[0,0,0,0,0,0,0],"sum_hessian":[1.29E2,9.8E1,3.1E1,2.1E1,7.7E1,1.6E1,1.5E1],"tree_param":{"num_deleted":"0","num_feature":"27","num_nodes":"7","size_leaf_vector":"1"}},{"base_weights":[3.458421E-1,-9.067421E-1,3.3355622E0,-8.780343E-2,9.0327255E-2,2.1544717E-1,3.0296097E-2],"categories":[],"categories_nodes":[],"categories_segments":[],"categories_sizes":[],"default_left":[0,0,0,0,0,0,0],"id":41,"left_children":[1,3,5,-1,-1,-1,-1],"loss_changes":[7.032926E2,3.7680533E2,8.900134E1,0E0,0E0,0E0,0E0],"parents":[2147483647,0,0,1,1,2,2],"right_children":[2,4,6,-1,-1,-1,-1],"split_conditions":[5.8138096E1,5.6153847E1,2.3943663E-1,-8.780343E-2,9.0327255E-2,2.1544717E-1,3.0296097E-2],"split_indices":[2,14,12,0,0,0,0],"split_type":[0,0,0,0,0,0,0],"sum_hessian":[1.51E2,1.16E2,3.5E1,9.4E1,2.2E1,1.7E1,1.8E1],"tree_param":{"num_deleted":"0","num_feature":"27","num_nodes":"7","size_leaf_vector":"1"}},{"base_weights":[-2.4003801E-1,-1.2257886E0,2.201504E-1,3.3046063E-2,-1.2282586E-1],"categories":[],"categories_nodes":[],"categories_segments":[],"categories_sizes":[],"default_left":[0,0,0,0,0],"id":42,"left_children":[1,3,-1,-1,-1],"loss_changes":[9.102978E2,4.0811334E2,0E0,0E0,0E0],"parents":[2147483647,0,0,1,1],"right_children":[2,4,-1,-1,-1],"split_conditions":[7.6069046E1,1.0020885E0,2.201504E-1,3.3046063E-2,-1.2282586E-1],"split_indices":[3,20,0,0,0],"split_type":[0,0,0,0,0],"sum_hessian":[1.56E2,1.41E2,1.5E1,5.9E1,8.2E1],"tree_param":{"num_deleted":"0","num_feature":"27","num_nodes":"5","size_leaf_vector":"1"}},{"base_weights":[-5.10608E-1,-2.0476868E0,3.2221134E0,2.5853956E-2,-1.3229337E-1,2.1133903E-1,1.9721506E-2],"categories":[],"categories_nodes":[],"categories_segments":[],"categories_sizes":[],"default_left":[0,0,0,0,0,0,0],"id":43,"left_children":[1,3,5,-1,-1,-1,-1],"loss_changes":[1.0832059E3,2.2893634E2,1.21124695E2,0E0,0E0,0E0,0E0],"parents":[2147483647,0,0,1,1,2,2],"right_children":[2,4,6,-1,-1,-1,-1],"split_conditions":[5.8138096E1,1.8181819E-1,5.15E1,2.5853956E-2,-1.3229337E-1,2.1133903E-1,1.9721506E-2],"split_indices":[2,18,13,0,0,0,0],"split_type":[0,0,0,0,0,0,0],"sum_hessian":[1.46E2,1.1E2,3.6E1,2.1E1,8.9E1,1.9E1,1.7E1],"tree_param":{"num_deleted":"0","num_feature":"27","num_nodes":"7","size_leaf_vector":"1"}},{"base_weights":[-2.4947469E-1,-1.6479707E-1,9.5228446E-1,8.699146E-2,-9.6674755E-2],"categories":[],"categories_nodes":[],"categories_segments":[],"categories_sizes":[],"default_left":[0,0,0,0,0],"id":44,"left_children":[1,-1,3,-1,-1],"loss_changes":[6.252684E2,0E0,3.5117044E2,0E0,0E0],"parents":[2147483647,0,0,2,2],"right_children":[2,-1,4,-1,-1],"split_conditions":[4.1553844E1,-1.6479707E-1,2.0457876E0,8.699146E-2,-9.6674755E-2],"split_indices":[3,0,20,0,0],"split_type":[0,0,0,0,0],"sum_hessian":[1.33E2,2.8E1,1.05E2,8.9E1,1.6E1],"tree_param":{"num_deleted":"0","num_feature":"27","num_nodes":"5","size_leaf_vector":"1"}},{"base_weights":[7.4215285E-2,-1.7371651E0,1.5434337E0,-1.5186955E-1,8.765411E-2,1.2194639E-1,-1.1821835E-2],"categories":[],"categories_nodes":[],"categories_segments":[],"categories_sizes":[],"default_left":[0,0,0,0,0,0,0],"id":45,"left_children":[1,3,5,-1,-1,-1,-1],"loss_changes":[4.9254694E2,4.844433E2,1.7630959E2,0E0,0E0,0E0,0E0],"parents":[2147483647,0,0,1,1,2,2],"right_children":[2,4,6,-1,-1,-1,-1],"split_conditions":[4.91875E1,1.5563103E0,2.4183007E-1,-1.5186955E-1,8.765411E-2,1.2194639E-1,-1.1821835E-2],"split_indices":[22,5,12,0,0,0,0],"split_type":[0,0,0,0,0,0,0],"sum_hessian":[1.45E2,6.3E1,8.2E1,4.8E1,1.5E1,5E1,3.2E1],"tree_param":{"num_deleted":"0","num_feature":"27","num_nodes":"7","size_leaf_vector":"1"}},{"base_weights":[-1.9012083E-1,-1.8738693E0,1.3489362E0,6.630706E-2,-2.1180545E-1,1.6487876E-1,-4.4342196E-3],"categories":[],"categories_nodes":[],"categories_segments":[],"categories_sizes":[],"default_left":[0,0,0,0,0,0,0],"id":46,"left_children":[1,3,5,-1,-1,-1,-1],"loss_changes":[4.7606668E2,7.729132E2,2.8079388E2,0E0,0E0,0E0,0E0],"parents":[2147483647,0,0,1,1,2,2],"right_children":[2,4,6,-1,-1,-1,-1],"split_conditions":[4.96E1,3.8575E1,4.7333332E1,6.630706E-2,-2.1180545E-1,1.6487876E-1,-4.4342196E-3],"split_indices":[7,15,22,0,0,0,0],"split_type":[0,0,0,0,0,0,0],"sum_hessian":[1.44E2,6.7E1,7.7E1,3.2E1,3.5E1,2.2E1,5.5E1],"tree_param":{"num_deleted":"0","num_feature":"27","num_nodes":"7","size_leaf_vector":"1"}},{"base_weights":[7.505077E-1,-7.864572E-1,2.7326968E0,3.3931624E-2,-9.263809E-2,1.7357706E-1,2.7213959E-2],"categories":[],"categories_nodes":[],"categories_segments":[],"categories_sizes":[],"default_left":[0,0,0,0,0,0,0],"id":47,"left_children":[1,3,5,-1,-1,-1,-1],"loss_changes":[5.6284357E2,1.9972876E2,8.5929565E1,0E0,0E0,0E0,0E0],"parents":[2147483647,0,0,1,1,2,2],"right_children":[2,4,6,-1,-1,-1,-1],"split_conditions":[5.3E1,4.757143E1,1.6553571E0,3.3931624E-2,-9.263809E-2,1.7357706E-1,2.7213959E-2],"split_indices":[7,14,20,0,0,0,0],"split_type":[0,0,0,0,0,0,0],"sum_hessian":[1.5E2,9.1E1,5.9E1,4.1E1,5E1,3.5E1,2.4E1],"tree_param":{"num_deleted":"0","num_feature":"27","num_nodes":"7","size_leaf_vector":"1"}},{"base_weights":[-2.4936599E-1,-1.591626E-1,7.360672E-1,1.5710138E-1,-3.031963E-2],"categories":[],"categories_nodes":[],"categories_segments":[],"categories_sizes":[],"default_left":[0,0,0,0,0],"id":48,"left_children":[1,-1,3,-1,-1],"loss_changes":[5.3213074E2,0E0,4.9605823E2,0E0,0E0],"parents":[2147483647,0,0,2,2],"right_children":[2,-1,4,-1,-1],"split_conditions":[9.4E0,-1.591626E-1,2.0666666E-1,1.5710138E-1,-3.031963E-2],"split_indices":[9,0,11,0,0],"split_type":[0,0,0,0,0],"sum_hessian":[1.47E2,2.6E1,1.21E2,3.4E1,8.7E1],"tree_param":{"num_deleted":"0","num_feature":"27","num_nodes":"5","size_leaf_vector":"1"}},{"base_weights":[-3.843812E-1,-2.7205765E0,1.1640685E0,-2.5545692E-2,-1.5343094E-1,1.6928504E-1,-1.8355606E-2],"categories":[],"categories_nodes":[],"categories_segments":[],"categories_sizes":[],"default_left":[0,0,0,0,0,0,0],"id":49,"left_children":[1,3,5,-1,-1,-1,-1],"loss_changes":[7.160418E2,2.5050842E1,4.4288705E2,0E0,0E0,0E0,0E0],"parents":[2147483647,0,0,1,1,2,2],"right_children":[2,4,6,-1,-1,-1,-1],"split_conditions":[4.76E1,1.875E-1,3.54E1,-2.5545692E-2,-1.5343094E-1,1.6928504E-1,-1.8355606E-2],"split_indices":[7,18,23,0,0,0,0],"split_type":[0,0,0,0,0,0,0],"sum_hessian":[1.6E2,5.8E1,1.02E2,1.5E1,4.3E1,3.2E1,7E1],"tree_param":{"num_deleted":"0","num_feature":"27","num_nodes":"7","size_leaf_vector":"1"}},{"base_weights":[-2.0786297E-1,-2.0248674E-1,8.545693E-1,-1.1567072E-1,8.254107E-2],"categories":[],"categories_nodes":[],"categories_segments":[],"categories_sizes":[],"default_left":[0,0,0,0,0],"id":50,"left_children":[1,-1,3,-1,-1],"loss_changes":[7.377325E2,0E0,4.3896002E2,0E0,0E0],"parents":[2147483647,0,0,2,2],"right_children":[2,-1,4,-1,-1],"split_conditions":[3.489394E1,-2.0248674E-1,4.24E1,-1.1567072E-1,8.254107E-2],"split_indices":[3,0,7,0,0],"split_type":[0,0,0,0,0],"sum_hessian":[1.43E2,1.9E1,1.24E2,1.7E1,1.07E2],"tree_param":{"num_deleted":"0","num_feature":"27","num_nodes":"5","size_leaf_vector":"1"}},{"base_weights":[6.883494E-1,-6.6644263E-1,1.9834237E-1,-1.7041205E-1,3.8645454E-2],"categories":[],"categories_nodes":[],"categories_segments":[],"categories_sizes":[],"default_left":[0,0,0,0,0],"id":51,"left_children":[1,3,-1,-1,-1],"loss_changes":[7.535181E2,5.6046124E2,0E0,0E0,0E0],"parents":[2147483647,0,0,1,1],"right_children":[2,4,-1,-1,-1],"split_conditions":[2.091401E1,4.5392857E1,1.9834237E-1,-1.7041205E-1,3.8645454E-2],"split_indices":[6,8,0,0,0],"split_type":[0,0,0,0,0],"sum_hessian":[1.37E2,1.08E2,2.9E1,2.8E1,8E1],"tree_param":{"num_deleted":"0","num_feature":"27","num_nodes":"5","size_leaf_vector":"1"}},{"base_weights":[-1.2155133E0,-2.399551E0,6.31693E-1,-1.7002745E-1,5.248937E-2,1.01981856E-1,-5.0683837E-2],"categories":[],"categories_nodes":[],"categories_segments":[],"categories_sizes":[],"default_left":[0,0,0,0,0,0,0],"id":52,"left_children":[1,3,5,-1,-1,-1,-1],"loss_changes":[3.820293E2,4.2593158E2,2.2307053E2,0E0,0E0,0E0,0E0],"parents":[2147483647,0,0,1,1,2,2],"right_children":[2,4,6,-1,-1,-1,-1],"split_conditions":[5.3E1,5.5466667E1,3.88E1,-1.7002745E-1,5.248937E-2,1.01981856E-1,-5.0683837E-2],"split_indices":[7,14,23,0,0,0,0],"split_type":[0,0,0,0,0,0,0],"sum_hessian":[1.4E2,8.2E1,5.8E1,6.4E1,1.8E1,2.9E1,2.9E1],"tree_param":{"num_deleted":"0","num_feature":"27","num_nodes":"7","size_leaf_vector":"1"}},{"base_weights":[-7.870716E-2,-1.288799E0,2.321577E-1,-9.753524E-2,5.0965764E-2],"categories":[],"categories_nodes":[],"categories_segments":[],"categories_sizes":[],"default_left":[0,0,0,0,0],"id":53,"left_children":[1,3,-1,-1,-1],"loss_changes":[1.0076937E3,2.5458458E2,0E0,0E0,0E0],"parents":[2147483647,0,0,1,1],"right_children":[2,4,-1,-1,-1],"split_conditions":[7.3310776E1,5.5923077E1,2.321577E-1,-9.753524E-2,5.0965764E-2],"split_indices":[3,22,0,0,0],"split_type":[0,0,0,0,0],"sum_hessian":[1.36E2,1.2E2,1.6E1,9.6E1,2.4E1],"tree_param":{"num_deleted":"0","num_feature":"27","num_nodes":"5","size_leaf_vector":"1"}},{"base_weights":[-6.0084206E-1,-1.5840572E0,1.5747683E-1,-1.3173483E-1,5.4193057E-2],"categories":[],"categories_nodes":[],"categories_segments":[],"categories_sizes":[],"default_left":[0,0,0,0,0],"id":54,"left_children":[1,3,-1,-1,-1],"loss_changes":[7.2876575E2,4.7631378E2,0E0,0E0,0E0],"parents":[2147483647,0,0,1,1],"right_children":[2,4,-1,-1,-1],"split_conditions":[6.314316E1,5.38E1,1.5747683E-1,-1.3173483E-1,5.4193057E-2],"split_indices":[2,7,0,0,0],"split_type":[0,0,0,0,0],"sum_hessian":[1.51E2,1.29E2,2.2E1,9.3E1,3.6E1],"tree_param":{"num_deleted":"0","num_feature":"27","num_nodes":"5","size_leaf_vector":"1"}},{"base_weights":[7.2830014E-2,-8.812742E-1,2.4224727E0,-7.666396E-2,8.773353E-2,1.462882E-1,2.3160014E-2],"categories":[],"categories_nodes":[],"categories_segments":[],"categories_sizes":[],"default_left":[0,0,0,0,0,0,0],"id":55,"left_children":[1,3,5,-1,-1,-1,-1],"loss_changes":[4.1189432E2,2.7872968E2,2.1769226E1,0E0,0E0,0E0,0E0],"parents":[2147483647,0,0,1,1,2,2],"right_children":[2,4,6,-1,-1,-1,-1],"split_conditions":[5.7E1,4.26E1,1.4345238E0,-7.666396E-2,8.773353E-2,1.462882E-1,2.3160014E-2],"split_indices":[17,10,20,0,0,0,0],"split_type":[0,0,0,0,0,0,0],"sum_hessian":[1.44E2,1.11E2,3.3E1,9.6E1,1.5E1,1.8E1,1.5E1],"tree_param":{"num_deleted":"0","num_feature":"27","num_nodes":"7","size_leaf_vector":"1"}},{"base_weights":[3.5504165E-1,-3.0030736E-1,1.2985633E-1,-6.1980415E-2,1.08943276E-1],"categories":[],"categories_nodes":[],"categories_segments":[],"categories_sizes":[],"default_left":[0,0,0,0,0],"id":56,"left_children":[1,3,-1,-1,-1],"loss_changes":[2.7503146E2,4.0936902E2,0E0,0E0,0E0],"parents":[2147483647,0,0,1,1],"right_children":[2,4,-1,-1,-1],"split_conditions":[4.767242E1,5.5764706E1,1.2985633E-1,-6.1980415E-2,1.08943276E-1],"split_indices":[1,14,0,0,0],"split_type":[0,0,0,0,0],"sum_hessian":[1.55E2,1.33E2,2.2E1,1.04E2,2.9E1],"tree_param":{"num_deleted":"0","num_feature":"27","num_nodes":"5","size_leaf_vector":"1"}},{"base_weights":[3.8272247E-1,-1.2987053E-1,1.450017E0,1.22237995E-1,-2.3726463E-2],"categories":[],"categories_nodes":[],"categories_segments":[],"categories_sizes":[],"default_left":[0,0,0,0,0],"id":57,"left_children":[1,-1,3,-1,-1],"loss_changes":[5.576417E2,0E0,2.6447604E2,0E0,0E0],"parents":[2147483647,0,0,2,2],"right_children":[2,-1,4,-1,-1],"split_conditions":[9.4E0,-1.2987053E-1,3.9992237E1,1.22237995E-1,-2.3726463E-2],"split_indices":[9,0,1,0,0],"split_type":[0,0,0,0,0],"sum_hessian":[1.32E2,2.7E1,1.05E2,6.6E1,3.9E1],"tree_param":{"num_deleted":"0","num_feature":"27","num_nodes":"5","size_leaf_vector":"1"}},{"base_weights":[3.995976E-1,-9.070531E-2,1.0188512E0,9.0102606E-2,-8.360482E-2],"categories":[],"categories_nodes":[],"categories_segments":[],"categories_sizes":[],"default_left":[0,0,0,0,0],"id":58,"left_children":[1,-1,3,-1,-1],"loss_changes":[2.6921432E2,0E0,3.6809674E2,0E0,0E0],"parents":[2147483647,0,0,2,2],"right_children":[2,-1,4,-1,-1],"split_conditions":[5.024116E0,-9.070531E-2,1.0182693E1,9.0102606E-2,-8.360482E-2],"split_indices":[19,0,19,0,0],"split_type":[0,0,0,0,0],"sum_hessian":[1.5E2,2.4E1,1.26E2,1.03E2,2.3E1],"tree_param":{"num_deleted":"0","num_feature":"27","num_nodes":"5","size_leaf_vector":"1"}},{"base_weights":[2.652853E-1,-1.0755512E0,2.4597728E-1,-1.24336116E-1,1.826048E-4],"categories":[],"categories_nodes":[],"categories_segments":[],"categories_sizes":[],"default_left":[0,0,0,0,0],"id":59,"left_children":[1,3,-1,-1,-1],"loss_changes":[1.1768114E3,2.2958282E2,0E0,0E0,0E0],"parents":[2147483647,0,0,1,1],"right_children":[2,4,-1,-1,-1],"split_conditions":[6.0477226E1,4.64E1,2.4597728E-1,-1.24336116E-1,1.826048E-4],"split_indices":[2,7,0,0,0],"split_type":[0,0,0,0,0],"sum_hessian":[1.51E2,1.29E2,2.2E1,4.5E1,8.4E1],"tree_param":{"num_deleted":"0","num_feature":"27","num_nodes":"5","size_leaf_vector":"1"}},{"base_weights":[-4.590166E-1,-1.5055538E0,2.2048633E0,-1.3257693E-1,1.2666751E-1,1.7144865E-1,-1.4278576E-2],"categories":[],"categories_nodes":[],"categories_segments":[],"categories_sizes":[],"default_left":[0,0,0,0,0,0,0],"id":60,"left_children":[1,3,5,-1,-1,-1,-1],"loss_changes":[4.9223248E2,6.991433E2,1.7820456E2,0E0,0E0,0E0,0E0],"parents":[2147483647,0,0,1,1,2,2],"right_children":[2,4,6,-1,-1,-1,-1],"split_conditions":[5.8444546E1,5.9E1,5.16E1,-1.3257693E-1,1.2666751E-1,1.7144865E-1,-1.4278576E-2],"split_indices":[2,17,17,0,0,0,0],"split_type":[0,0,0,0,0,0,0],"sum_hessian":[1.33E2,1.02E2,3.1E1,8.5E1,1.7E1,1.6E1,1.5E1],"tree_param":{"num_deleted":"0","num_feature":"27","num_nodes":"7","size_leaf_vector":"1"}},{"base_weights":[-4.2940956E-1,-1.4258482E0,1.2048676E-1,4.596138E-3,-1.1634685E-1],"categories":[],"categories_nodes":[],"categories_segments":[],"categories_sizes":[],"default_left":[0,0,0,0,0],"id":61,"left_children":[1,3,-1,-1,-1],"loss_changes":[5.2320886E2,1.8704233E2,0E0,0E0,0E0],"parents":[2147483647,0,0,1,1],"right_children":[2,4,-1,-1,-1],"split_conditions":[5.82E1,3E0,1.2048676E-1,4.596138E-3,-1.1634685E-1],"split_indices":[7,26,0,0,0],"split_type":[0,0,0,0,0],"sum_hessian":[1.41E2,1.12E2,2.9E1,4.8E1,6.4E1],"tree_param":{"num_deleted":"0","num_feature":"27","num_nodes":"5","size_leaf_vector":"1"}},{"base_weights":[-3.2093346E-1,1.1326914E0,-2.313178E0,1.3358349E-1,-4.7706004E-2,-1.6474147E-1,2.7754536E-2],"categories":[],"categories_nodes":[],"categories_segments":[],"categories_sizes":[],"default_left":[0,0,0,0,0,0,0],"id":62,"left_children":[1,3,5,-1,-1,-1,-1],"loss_changes":[5.4879474E2,4.123939E2,2.6175388E2,0E0,0E0,0E0,0E0],"parents":[2147483647,0,0,1,1,2,2],"right_children":[2,4,6,-1,-1,-1,-1],"split_conditions":[3.8575E1,5.0416668E1,4.8123486E1,1.3358349E-1,-4.7706004E-2,-1.6474147E-1,2.7754536E-2],"split_indices":[15,14,15,0,0,0,0],"split_type":[0,0,0,0,0,0,0],"sum_hessian":[1.51E2,9.2E1,5.9E1,5E1,4.2E1,4.2E1,1.7E1],"tree_param":{"num_deleted":"0","num_feature":"27","num_nodes":"7","size_leaf_vector":"1"}},{"base_weights":[4.2604813E-1,-7.923232E-1,2.6080358E0,-1.3818881E-1,1.5469926E-2,2.0062378E-1,1.20357685E-2],"categories":[],"categories_nodes":[],"categories_segments":[],"categories_sizes":[],"default_left":[0,0,0,0,0,0,0],"id":63,"left_children":[1,3,5,-1,-1,-1,-1],"loss_changes":[4.7381616E2,2.7802362E2,1.8588931E2,0E0,0E0,0E0,0E0],"parents":[2147483647,0,0,1,1,2,2],"right_children":[2,4,6,-1,-1,-1,-1],"split_conditions":[5.35E1,4.24E1,5.02E1,-1.3818881E-1,1.5469926E-2,2.0062378E-1,1.20357685E-2],"split_indices":[25,7,13,0,0,0,0],"split_type":[0,0,0,0,0,0,0],"sum_hessian":[1.42E2,9.9E1,4.3E1,2.5E1,7.4E1,1.8E1,2.5E1],"tree_param":{"num_deleted":"0","num_feature":"27","num_nodes":"7","size_leaf_vector":"1"}},{"base_weights":[2.4794215E-1,-1.5502764E0,1.9287742E0,2.1533635E-2,-1.2452777E-1,2.3901893E-2,1.6530101E-1],"categories":[],"categories_nodes":[],"categories_segments":[],"categories_sizes":[],"default_left":[0,0,0,0,0,0,0],"id":64,"left_children":[1,3,5,-1,-1,-1,-1],"loss_changes":[5.6191675E2,1.9301283E2,1.5441983E2,0E0,0E0,0E0,0E0],"parents":[2147483647,0,0,1,1,2,2],"right_children":[2,4,6,-1,-1,-1,-1],"split_conditions":[4.8119865E1,3.306536E1,3.6357143E1,2.1533635E-2,-1.2452777E-1,2.3901893E-2,1.6530101E-1],"split_indices":[2,15,15,0,0,0,0],"split_type":[0,0,0,0,0,0,0],"sum_hessian":[1.46E2,7.1E1,7.5E1,2.6E1,4.5E1,5E1,2.5E1],"tree_param":{"num_deleted":"0","num_feature":"27","num_nodes":"7","size_leaf_vector":"1"}},{"base_weights":[-2.7062568E-1,-2.6747031E0,8.737776E-1,-1.4294137E-2,-1.759225E-1,-1.5066899E-2,1.5038414E-1],"categories":[],"categories_nodes":[],"categories_segments":[],"categories_sizes":[],"default_left":[0,0,0,0,0,0,0],"id":65,"left_children":[1,3,5,-1,-1,-1,-1],"loss_changes":[5.245064E2,9.902756E1,3.5183417E2,0E0,0E0,0E0,0E0],"parents":[2147483647,0,0,1,1,2,2],"right_children":[2,4,6,-1,-1,-1,-1],"split_conditions":[2.1835443E-1,7.8932014E0,1.29008045E1,-1.4294137E-2,-1.759225E-1,-1.5066899E-2,1.5038414E-1],"split_indices":[24,16,16,0,0,0,0],"split_type":[0,0,0,0,0,0,0],"sum_hessian":[1.53E2,4.1E1,1.12E2,1.8E1,2.3E1,8.3E1,2.9E1],"tree_param":{"num_deleted":"0","num_feature":"27","num_nodes":"7","size_leaf_vector":"1"}},{"base_weights":[-1.9330762E-1,-2.5539546E0,6.954455E-1,-1.6823739E-1,-1.3699897E-2,1.4762828E-1,-2.0387774E-2],"categories":[],"categories_nodes":[],"categories_segments":[],"categories_sizes":[],"default_left":[0,0,0,0,0,0,0],"id":66,"left_children":[1,3,5,-1,-1,-1,-1],"loss_changes":[4.0873294E2,7.589697E1,3.8519147E2,0E0,0E0,0E0,0E0],"parents":[2147483647,0,0,1,1,2,2],"right_children":[2,4,6,-1,-1,-1,-1],"split_conditions":[9.4E0,3.930981E1,4.56E1,-1.6823739E-1,-1.3699897E-2,1.4762828E-1,-2.0387774E-2],"split_indices":[9,2,21,0,0,0,0],"split_type":[0,0,0,0,0,0,0],"sum_hessian":[1.57E2,3.3E1,1.24E2,1.7E1,1.6E1,3E1,9.4E1],"tree_param":{"num_deleted":"0","num_feature":"27","num_nodes":"7","size_leaf_vector":"1"}},{"base_weights":[4.010197E-1,-2.2368283E0,1.3385922E0,-1.3145499E-1,-2.63295E-2,1.9118538E-1,1.21121695E-2],"categories":[],"categories_nodes":[],"categories_segments":[],"categories_sizes":[],"default_left":[0,0,0,0,0,0,0],"id":67,"left_children":[1,3,5,-1,-1,-1,-1],"loss_changes":[4.7200577E2,3.3699188E0,3.4794788E2,0E0,0E0,0E0,0E0],"parents":[2147483647,0,0,1,1,2,2],"right_children":[2,4,6,-1,-1,-1,-1],"split_conditions":[9.6E0,4.7866665E1,1.08E1,-1.3145499E-1,-2.63295E-2,1.9118538E-1,1.21121695E-2],"split_indices":[9,3,9,0,0,0,0],"split_type":[0,0,0,0,0,0,0],"sum_hessian":[1.47E2,3.1E1,1.16E2,1.6E1,1.5E1,2E1,9.6E1],"tree_param":{"num_deleted":"0","num_feature":"27","num_nodes":"7","size_leaf_vector":"1"}},{"base_weights":[-8.099122E-1,8.3996856E-1,-2.587064E0,-2.8363526E-2,1.9205074E-1,-1.6809037E-1,-2.5992904E-2],"categories":[],"categories_nodes":[],"categories_segments":[],"categories_sizes":[],"default_left":[0,0,0,0,0,0,0],"id":68,"left_children":[1,3,5,-1,-1,-1,-1],"loss_changes":[5.4952734E2,4.8606342E2,1.0210181E2,0E0,0E0,0E0,0E0],"parents":[2147483647,0,0,1,1,2,2],"right_children":[2,4,6,-1,-1,-1,-1],"split_conditions":[7.648718E0,7.1955338E0,4.02E1,-2.8363526E-2,1.9205074E-1,-1.6809037E-1,-2.5992904E-2],"split_indices":[19,19,23,0,0,0,0],"split_type":[0,0,0,0,0,0,0],"sum_hessian":[1.52E2,8.4E1,6.8E1,6.8E1,1.6E1,4E1,2.8E1],"tree_param":{"num_deleted":"0","num_feature":"27","num_nodes":"7","size_leaf_vector":"1"}},{"base_weights":[2.536135E-1,2.9481754E0,-8.264163E-1,3.3847418E-2,1.731054E-1,-8.900254E-2,7.529279E-2],"categories":[],"categories_nodes":[],"categories_segments":[],"categories_sizes":[],"default_left":[0,0,0,0,0,0,0],"id":69,"left_children":[1,3,5,-1,-1,-1,-1],"loss_changes":[5.426752E2,1.0852234E1,3.563666E2,0E0,0E0,0E0,0E0],"parents":[2147483647,0,0,1,1,2,2],"right_children":[2,4,6,-1,-1,-1,-1],"split_conditions":[7.669173E-1,4.94E1,1.9077922E0,3.3847418E-2,1.731054E-1,-8.900254E-2,7.529279E-2],"split_indices":[20,17,20,0,0,0,0],"split_type":[0,0,0,0,0,0,0],"sum_hessian":[1.49E2,3.3E1,1.16E2,1.5E1,1.8E1,8.6E1,3E1],"tree_param":{"num_deleted":"0","num_feature":"27","num_nodes":"7","size_leaf_vector":"1"}},{"base_weights":[-1.756689E-1,1.3420214E-1,-1.3642187E0,-1.3407227E-1,3.104142E-2],"categories":[],"categories_nodes":[],"categories_segments":[],"categories_sizes":[],"default_left":[0,0,0,0,0],"id":70,"left_children":[1,-1,3,-1,-1],"loss_changes":[5.9874365E2,0E0,3.5697006E2,0E0,0E0],"parents":[2147483647,0,0,2,2],"right_children":[2,-1,4,-1,-1],"split_conditions":[7.7007574E-1,1.3420214E-1,8.357449E0,-1.3407227E-1,3.104142E-2],"split_indices":[20,0,6,0,0],"split_type":[0,0,0,0,0],"sum_hessian":[1.35E2,3.2E1,1.03E2,5.8E1,4.5E1],"tree_param":{"num_deleted":"0","num_feature":"27","num_nodes":"5","size_leaf_vector":"1"}},{"base_weights":[5.3419292E-2,-2.0461822E0,1.552524E0,-1.3759848E-1,7.7993893E-3,1.295294E-1,-3.4269534E-2],"categories":[],"categories_nodes":[],"categories_segments":[],"categories_sizes":[],"default_left":[0,0,0,0,0,0,0],"id":71,"left_children":[1,3,5,-1,-1,-1,-1],"loss_changes":[6.0441516E2,1.3552255E2,2.976035E2,0E0,0E0,0E0,0E0],"parents":[2147483647,0,0,1,1,2,2],"right_children":[2,4,6,-1,-1,-1,-1],"split_conditions":[6.3333335E0,1.26E1,1.32E1,-1.3759848E-1,7.7993893E-3,1.295294E-1,-3.4269534E-2],"split_indices":[19,9,9,0,0,0,0],"split_type":[0,0,0,0,0,0,0],"sum_hessian":[1.52E2,6E1,9.2E1,4.2E1,1.8E1,6.1E1,3.1E1],"tree_param":{"num_deleted":"0","num_feature":"27","num_nodes":"7","size_leaf_vector":"1"}},{"base_weights":[-1.0502006E-1,-1.6147178E0,1.0199008E0,-1.0681319E-1,-6.5392494E-4,1.0606787E-1,-5.9851926E-2],"categories":[],"categories_nodes":[],"categories_segments":[],"categories_sizes":[],"default_left":[0,0,0,0,0,0,0],"id":72,"left_children":[1,3,5,-1,-1,-1,-1],"loss_changes":[3.154481E2,6.3282852E1,3.1299054E2,0E0,0E0,0E0,0E0],"parents":[2147483647,0,0,1,1,2,2],"right_children":[2,4,6,-1,-1,-1,-1],"split_conditions":[4.8764706E1,5E0,5E0,-1.0681319E-1,-6.5392494E-4,1.0606787E-1,-5.9851926E-2],"split_indices":[8,26,26,0,0,0,0],"split_type":[0,0,0,0,0,0,0],"sum_hessian":[1.46E2,5.9E1,8.7E1,3.9E1,2E1,5.9E1,2.8E1],"tree_param":{"num_deleted":"0","num_feature":"27","num_nodes":"7","size_leaf_vector":"1"}},{"base_weights":[3.9792648E-1,1.3617688E0,-2.0067651E0,-1.2923503E-1,1.1673673E-1,-1.3497347E-2,-1.2490492E-1],"categories":[],"categories_nodes":[],"categories_segments":[],"categories_sizes":[],"default_left":[0,0,0,0,0,0,0],"id":73,"left_children":[1,3,5,-1,-1,-1,-1],"loss_changes":[4.3643768E2,6.196132E2,3.067949E1,0E0,0E0,0E0,0E0],"parents":[2147483647,0,0,1,1,2,2],"right_children":[2,4,6,-1,-1,-1,-1],"split_conditions":[6E0,1.984127E-1,5.06E1,-1.2923503E-1,1.1673673E-1,-1.3497347E-2,-1.2490492E-1],"split_indices":[26,24,21,0,0,0,0],"split_type":[0,0,0,0,0,0,0],"sum_hessian":[1.45E2,1.1E2,3.5E1,1.5E1,9.5E1,1.5E1,2E1],"tree_param":{"num_deleted":"0","num_feature":"27","num_nodes":"7","size_leaf_vector":"1"}},{"base_weights":[-5.9893453E-1,1.0574788E0,-2.3739398E0,-1.4109132E-2,1.5250611E-1,-1.2381885E-2,-1.6771081E-1],"categories":[],"categories_nodes":[],"categories_segments":[],"categories_sizes":[],"default_left":[0,0,0,0,0,0,0],"id":74,"left_children":[1,3,5,-1,-1,-1,-1],"loss_changes":[5.5428864E2,2.922675E2,1.6529395E2,0E0,0E0,0E0,0E0],"parents":[2147483647,0,0,1,1,2,2],"right_children":[2,4,6,-1,-1,-1,-1],"split_conditions":[7.569748E0,6.921212E0,2.159091E-1,-1.4109132E-2,1.5250611E-1,-1.2381885E-2,-1.6771081E-1],"split_indices":[19,19,11,0,0,0,0],"split_type":[0,0,0,0,0,0,0],"sum_hessian":[1.51E2,8.2E1,6.9E1,5.9E1,2.3E1,3E1,3.9E1],"tree_param":{"num_deleted":"0","num_feature":"27","num_nodes":"7","size_leaf_vector":"1"}},{"base_weights":[-5.6749547E-1,-1.3417175E-1,-1.0025812E-2,-7.7215225E-2,6.2211484E-2],"categories":[],"categories_nodes":[],"categories_segments":[],"categories_sizes":[],"default_left":[0,0,0,0,0],"id":75,"left_children":[1,-1,3,-1,-1],"loss_changes":[1.9729572E2,0E0,3.3700797E2,0E0,0E0],"parents":[2147483647,0,0,2,2],"right_children":[2,-1,4,-1,-1],"split_conditions":[1E0,-1.3417175E-1,7.180128E0,-7.7215225E-2,6.2211484E-2],"split_indices":[0,0,19,0,0],"split_type":[0,0,0,0,0],"sum_hessian":[1.5E2,1.5E1,1.35E2,5.9E1,7.6E1],"tree_param":{"num_deleted":"0","num_feature":"27","num_nodes":"5","size_leaf_vector":"1"}},{"base_weights":[3.0455815E-2,9.226956E-1,-1.7993285E-1,-5.662185E-2,1.21604346E-1],"categories":[],"categories_nodes":[],"categories_segments":[],"categories_sizes":[],"default_left":[0,0,0,0,0],"id":76,"left_children":[1,3,-1,-1,-1],"loss_changes":[6.23914E2,5.371932E2,0E0,0E0,0E0],"parents":[2147483647,0,0,1,1],"right_children":[2,4,-1,-1,-1],"split_conditions":[1.1007591E1,4.96E1,-1.7993285E-1,-5.662185E-2,1.21604346E-1],"split_indices":[19,7,0,0,0],"split_type":[0,0,0,0,0],"sum_hessian":[1.53E2,1.35E2,1.8E1,5.9E1,7.6E1],"tree_param":{"num_deleted":"0","num_feature":"27","num_nodes":"5","size_leaf_vector":"1"}},{"base_weights":[2.025319E-1,-9.917688E-1,1.7365332E-1,-8.1898406E-2,6.983244E-2],"categories":[],"categories_nodes":[],"categories_segments":[],"categories_sizes":[],"default_left":[0,0,0,0,0],"id":77,"left_children":[1,3,-1,-1,-1],"loss_changes":[7.041432E2,2.5280937E2,0E0,0E0,0E0],"parents":[2147483647,0,0,1,1],"right_children":[2,4,-1,-1,-1],"split_conditions":[2.152619E1,5.98E1,1.7365332E-1,-8.1898406E-2,6.983244E-2],"split_indices":[6,17,0,0,0],"split_type":[0,0,0,0,0],"sum_hessian":[1.42E2,1.14E2,2.8E1,9.5E1,1.9E1],"tree_param":{"num_deleted":"0","num_feature":"27","num_nodes":"5","size_leaf_vector":"1"}},{"base_weights":[1.3132024E-1,-1.7690645E0,2.0561361E0,2.4291386E-3,-1.9682986E-1,1.7836134E-1,8.827241E-3],"categories":[],"categories_nodes":[],"categories_segments":[],"categories_sizes":[],"default_left":[0,0,0,0,0,0,0],"id":78,"left_children":[1,3,5,-1,-1,-1,-1],"loss_changes":[6.582983E2,3.6623575E2,2.364414E2,0E0,0E0,0E0,0E0],"parents":[2147483647,0,0,1,1,2,2],"right_children":[2,4,6,-1,-1,-1,-1],"split_conditions":[5.12E1,4.025E1,3.24E1,2.4291386E-3,-1.9682986E-1,1.7836134E-1,8.827241E-3],"split_indices":[7,15,15,0,0,0,0],"split_type":[0,0,0,0,0,0,0],"sum_hessian":[1.4E2,7.1E1,6.9E1,4.9E1,2.2E1,2.8E1,4.1E1],"tree_param":{"num_deleted":"0","num_feature":"27","num_nodes":"7","size_leaf_vector":"1"}},{"base_weights":[-7.127433E-2,-1.18952766E-1,8.9352447E-1,1.0335835E-1,-6.211974E-2],"categories":[],"categories_nodes":[],"categories_segments":[],"categories_sizes":[],"default_left":[0,0,0,0,0],"id":79,"left_children":[1,-1,3,-1,-1],"loss_changes":[4.1583334E2,0E0,3.8308786E2,0E0,0E0],"parents":[2147483647,0,0,2,2],"right_children":[2,-1,4,-1,-1],"split_conditions":[3.4E1,-1.18952766E-1,4.06E1,1.0335835E-1,-6.211974E-2],"split_indices":[10,0,10,0,0],"split_type":[0,0,0,0,0],"sum_hessian":[1.47E2,3.5E1,1.12E2,7.3E1,3.9E1],"tree_param":{"num_deleted":"0","num_feature":"27","num_nodes":"5","size_leaf_vector":"1"}},{"base_weights":[-9.860357E-2,-8.7643224E-1,1.7035106E-1,8.204762E-2,-8.428495E-2],"categories":[],"categories_nodes":[],"categories_segments":[],"categories_sizes":[],"default_left":[0,0,0,0,0],"id":80,"left_children":[1,3,-1,-1,-1],"loss_changes":[5.398291E2,3.8336267E2,0E0,0E0,0E0],"parents":[2147483647,0,0,1,1],"right_children":[2,4,-1,-1,-1],"split_conditions":[6.9772484E1,3.24E1,1.7035106E-1,8.204762E-2,-8.428495E-2],"split_indices":[2,23,0,0,0],"split_type":[0,0,0,0,0],"sum_hessian":[1.57E2,1.41E2,1.6E1,2.9E1,1.12E2],"tree_param":{"num_deleted":"0","num_feature":"27","num_nodes":"5","size_leaf_vector":"1"}},{"base_weights":[3.3034614E-1,-1.928073E0,1.1921811E0,-1.872902E-2,-1.2643902E-1,1.48953E-1,2.4433562E-3],"categories":[],"categories_nodes":[],"categories_segments":[],"categories_sizes":[],"default_left":[0,0,0,0,0,0,0],"id":81,"left_children":[1,3,5,-1,-1,-1,-1],"loss_changes":[3.7417538E2,2.8544495E1,2.6986066E2,0E0,0E0,0E0,0E0],"parents":[2147483647,0,0,1,1,2,2],"right_children":[2,4,6,-1,-1,-1,-1],"split_conditions":[4.5392857E1,4.0833332E1,2.1643835E-1,-1.872902E-2,-1.2643902E-1,1.48953E-1,2.4433562E-3],"split_indices":[8,15,24,0,0,0,0],"split_type":[0,0,0,0,0,0,0],"sum_hessian":[1.49E2,3.4E1,1.15E2,1.9E1,1.5E1,3.2E1,8.3E1],"tree_param":{"num_deleted":"0","num_feature":"27","num_nodes":"7","size_leaf_vector":"1"}},{"base_weights":[-7.85305E-1,-2.5203545E0,1.5751507E0,-1.6241977E-1,-0E0,1.5101898E-1,-4.1848436E-2],"categories":[],"categories_nodes":[],"categories_segments":[],"categories_sizes":[],"default_left":[0,0,0,0,0,0,0],"id":82,"left_children":[1,3,5,-1,-1,-1,-1],"loss_changes":[7.274341E2,1.8364307E2,3.281418E2,0E0,0E0,0E0,0E0],"parents":[2147483647,0,0,1,1,2,2],"right_children":[2,4,6,-1,-1,-1,-1],"split_conditions":[5.11E1,5.3746643E1,6.1607494E1,-1.6241977E-1,-0E0,1.5101898E-1,-4.1848436E-2],"split_indices":[8,2,3,0,0,0,0],"split_type":[0,0,0,0,0,0,0],"sum_hessian":[1.38E2,7.9E1,5.9E1,5.7E1,2.2E1,3.4E1,2.5E1],"tree_param":{"num_deleted":"0","num_feature":"27","num_nodes":"7","size_leaf_vector":"1"}},{"base_weights":[-1.4732604E-1,-2.2472584E0,8.4356004E-1,-1.6948177E-2,-1.360506E-1,9.896728E-2,-8.027945E-2],"categories":[],"categories_nodes":[],"categories_segments":[],"categories_sizes":[],"default_left":[0,0,0,0,0,0,0],"id":83,"left_children":[1,3,5,-1,-1,-1,-1],"loss_changes":[3.8472943E2,3.183313E1,4.1721094E2,0E0,0E0,0E0,0E0],"parents":[2147483647,0,0,1,1,2,2],"right_children":[2,4,6,-1,-1,-1,-1],"split_conditions":[3.0333334E1,2.6608334E1,4.12E1,-1.6948177E-2,-1.360506E-1,9.896728E-2,-8.027945E-2],"split_indices":[1,1,10,0,0,0,0],"split_type":[0,0,0,0,0,0,0],"sum_hessian":[1.46E2,3.9E1,1.07E2,1.5E1,2.4E1,7.6E1,3.1E1],"tree_param":{"num_deleted":"0","num_feature":"27","num_nodes":"7","size_leaf_vector":"1"}},{"base_weights":[-2.6087818E-1,-1.5992216E0,1.4866143E0,-1.6146162E-1,2.4264386E-2,-2.2908404E-2,1.590929E-1],"categories":[],"categories_nodes":[],"categories_segments":[],"categories_sizes":[],"default_left":[0,0,0,0,0,0,0],"id":84,"left_children":[1,3,5,-1,-1,-1,-1],"loss_changes":[4.1952158E2,3.7386334E2,2.9233368E2,0E0,0E0,0E0,0E0],"parents":[2147483647,0,0,1,1,2,2],"right_children":[2,4,6,-1,-1,-1,-1],"split_conditions":[7.8278136E0,5.2217392E1,4.96E1,-1.6146162E-1,2.4264386E-2,-2.2908404E-2,1.590929E-1],"split_indices":[6,8,7,0,0,0,0],"split_type":[0,0,0,0,0,0,0],"sum_hessian":[1.39E2,8E1,5.9E1,3.9E1,4.1E1,3.4E1,2.5E1],"tree_param":{"num_deleted":"0","num_feature":"27","num_nodes":"7","size_leaf_vector":"1"}},{"base_weights":[1.9025378E-1,-6.113346E-1,1.507688E-1,1.835032E-2,-8.7993145E-2],"categories":[],"categories_nodes":[],"categories_segments":[],"categories_sizes":[],"default_left":[0,0,0,0,0],"id":85,"left_children":[1,3,-1,-1,-1],"loss_changes":[4.2198697E2,1.8061102E2,0E0,0E0,0E0],"parents":[2147483647,0,0,1,1],"right_children":[2,4,-1,-1,-1],"split_conditions":[6.314316E1,3.8081818E1,1.507688E-1,1.835032E-2,-8.7993145E-2],"split_indices":[2,15,0,0,0],"split_type":[0,0,0,0,0],"sum_hessian":[1.49E2,1.28E2,2.1E1,7.6E1,5.2E1],"tree_param":{"num_deleted":"0","num_feature":"27","num_nodes":"5","size_leaf_vector":"1"}},{"base_weights":[-4.420539E-1,-1.5850909E0,1.749256E0,-1.2127284E-1,1.490996E-2,1.321256E-1,2.0873796E-3],"categories":[],"categories_nodes":[],"categories_segments":[],"categories_sizes":[],"default_left":[0,0,0,0,0,0,0],"id":86,"left_children":[1,3,5,-1,-1,-1,-1],"loss_changes":[4.4102167E2,1.9384973E2,8.967439E1,0E0,0E0,0E0,0E0],"parents":[2147483647,0,0,1,1,2,2],"right_children":[2,4,6,-1,-1,-1,-1],"split_conditions":[5.45E1,1.0559254E1,2.3943663E-1,-1.2127284E-1,1.490996E-2,1.321256E-1,2.0873796E-3],"split_indices":[25,6,12,0,0,0,0],"split_type":[0,0,0,0,0,0,0],"sum_hessian":[1.34E2,9.2E1,4.2E1,6E1,3.2E1,2E1,2.2E1],"tree_param":{"num_deleted":"0","num_feature":"27","num_nodes":"7","size_leaf_vector":"1"}},{"base_weights":[-2.3436032E-2,-1.0769401E0,2.816805E0,-9.092855E-2,7.701839E-2,2.0469704E-1,-0E0],"categories":[],"categories_nodes":[],"categories_segments":[],"categories_sizes":[],"default_left":[0,0,0,0,0,0,0],"id":87,"left_children":[1,3,5,-1,-1,-1,-1],"loss_changes":[5.646134E2,3.2417212E2,1.819584E2,0E0,0E0,0E0,0E0],"parents":[2147483647,0,0,1,1,2,2],"right_children":[2,4,6,-1,-1,-1,-1],"split_conditions":[3E0,5.9E1,3.68E1,-9.092855E-2,7.701839E-2,2.0469704E-1,-0E0],"split_indices":[0,25,23,0,0,0,0],"split_type":[0,0,0,0,0,0,0],"sum_hessian":[1.49E2,1.18E2,3.1E1,9.7E1,2.1E1,1.5E1,1.6E1],"tree_param":{"num_deleted":"0","num_feature":"27","num_nodes":"7","size_leaf_vector":"1"}},{"base_weights":[2.0395365E-2,1.0024499E0,-2.3985097E0,-3.1424325E-2,1.0238433E-1,-8.347876E-3,-1.5460898E-1],"categories":[],"categories_nodes":[],"categories_segments":[],"categories_sizes":[],"default_left":[0,0,0,0,0,0,0],"id":88,"left_children":[1,3,5,-1,-1,-1,-1],"loss_changes":[4.695301E2,2.675228E2,7.464932E1,0E0,0E0,0E0,0E0],"parents":[2147483647,0,0,1,1,2,2],"right_children":[2,4,6,-1,-1,-1,-1],"split_conditions":[2.7407408E-1,4.96E1,3.54E1,-3.1424325E-2,1.0238433E-1,-8.347876E-3,-1.5460898E-1],"split_indices":[18,7,23,0,0,0,0],"split_type":[0,0,0,0,0,0,0],"sum_hessian":[1.58E2,1.21E2,3.7E1,5E1,7.1E1,1.5E1,2.2E1],"tree_param":{"num_deleted":"0","num_feature":"27","num_nodes":"7","size_leaf_vector":"1"}},{"base_weights":[1.5180804E-1,-1.608085E0,1.0294523E0,-1.18400924E-1,3.5942178E-3,1.19445756E-1,-1.8655455E-2],"categories":[],"categories_nodes":[],"categories_segments":[],"categories_sizes":[],"default_left":[0,0,0,0,0,0,0],"id":89,"left_children":[1,3,5,-1,-1,-1,-1],"loss_changes":[2.8120447E2,8.357716E1,2.4864993E2,0E0,0E0,0E0,0E0],"parents":[2147483647,0,0,1,1,2,2],"right_children":[2,4,6,-1,-1,-1,-1],"split_conditions":[4.7E1,9.8E0,2.3870967E-1,-1.18400924E-1,3.5942178E-3,1.19445756E-1,-1.8655455E-2],"split_indices":[8,9,11,0,0,0,0],"split_type":[0,0,0,0,0,0,0],"sum_hessian":[1.41E2,4.1E1,1E2,2.3E1,1.8E1,4.4E1,5.6E1],"tree_param":{"num_deleted":"0","num_feature":"27","num_nodes":"7","size_leaf_vector":"1"}},{"base_weights":[2.9823048E-2,-1.3713428E0,1.8738974E0,-1.2912962E-1,5.592384E-3,1.5373452E-1,-2.4171434E-2],"categories":[],"categories_nodes":[],"categories_segments":[],"categories_sizes":[],"default_left":[0,0,0,0,0,0,0],"id":90,"left_children":[1,3,5,-1,-1,-1,-1],"loss_changes":[4.782336E2,1.9688182E2,2.5877194E2,0E0,0E0,0E0,0E0],"parents":[2147483647,0,0,1,1,2,2],"right_children":[2,4,6,-1,-1,-1,-1],"split_conditions":[1.4173396E0,3.0604546E1,2.360515E-1,-1.2912962E-1,5.592384E-3,1.5373452E-1,-2.4171434E-2],"split_indices":[5,1,24,0,0,0,0],"split_type":[0,0,0,0,0,0,0],"sum_hessian":[1.45E2,8.5E1,6E1,3.9E1,4.6E1,3.6E1,2.4E1],"tree_param":{"num_deleted":"0","num_feature":"27","num_nodes":"7","size_leaf_vector":"1"}},{"base_weights":[6.563567E-1,-1.9304134E0,1.8009893E0,-1.3444655E-1,2.0668933E-3,1.3984446E-1,4.4524777E-3],"categories":[],"categories_nodes":[],"categories_segments":[],"categories_sizes":[],"default_left":[0,0,0,0,0,0,0],"id":91,"left_children":[1,3,5,-1,-1,-1,-1],"loss_changes":[5.5795233E2,9.460718E1,2.0524786E2,0E0,0E0,0E0,0E0],"parents":[2147483647,0,0,1,1,2,2],"right_children":[2,4,6,-1,-1,-1,-1],"split_conditions":[4.52E1,2.4193548E-1,5.70125E1,-1.3444655E-1,2.0668933E-3,1.3984446E-1,4.4524777E-3],"split_indices":[7,18,3,0,0,0,0],"split_type":[0,0,0,0,0,0,0],"sum_hessian":[1.45E2,4E1,1.05E2,2.4E1,1.6E1,5.8E1,4.7E1],"tree_param":{"num_deleted":"0","num_feature":"27","num_nodes":"7","size_leaf_vector":"1"}},{"base_weights":[5.630469E-1,-1.382485E0,1.6352764E0,-1.23482324E-1,4.970731E-2,-1.915055E-2,1.3943622E-1],"categories":[],"categories_nodes":[],"categories_segments":[],"categories_sizes":[],"default_left":[0,0,0,0,0,0,0],"id":92,"left_children":[1,3,5,-1,-1,-1,-1],"loss_changes":[3.7715073E2,2.2369266E2,2.845027E2,0E0,0E0,0E0,0E0],"parents":[2147483647,0,0,1,1,2,2],"right_children":[2,4,6,-1,-1,-1,-1],"split_conditions":[2.182628E-1,1.0075595E1,1.16E1,-1.23482324E-1,4.970731E-2,-1.915055E-2,1.3943622E-1],"split_indices":[24,6,9,0,0,0,0],"split_type":[0,0,0,0,0,0,0],"sum_hessian":[1.39E2,4.7E1,9.2E1,3.2E1,1.5E1,3.8E1,5.4E1],"tree_param":{"num_deleted":"0","num_feature":"27","num_nodes":"7","size_leaf_vector":"1"}},{"base_weights":[-9.0015344E-2,1.6469843E0,-9.9408525E-1,4.6849973E-3,1.409204E-1,5.8553148E-2,-7.704853E-2],"categories":[],"categories_nodes":[],"categories_segments":[],"categories_sizes":[],"default_left":[0,0,0,0,0,0,0],"id":93,"left_children":[1,3,5,-1,-1,-1,-1],"loss_changes":[2.9748434E2,1.1007724E2,1.8328831E2,0E0,0E0,0E0,0E0],"parents":[2147483647,0,0,1,1,2,2],"right_children":[2,4,6,-1,-1,-1,-1],"split_conditions":[4.56E1,1.18E1,1.764706E-1,4.6849973E-3,1.409204E-1,5.8553148E-2,-7.704853E-2],"split_indices":[21,9,11,0,0,0,0],"split_type":[0,0,0,0,0,0,0],"sum_hessian":[1.49E2,4.5E1,1.04E2,2.9E1,1.6E1,1.6E1,8.8E1],"tree_param":{"num_deleted":"0","num_feature":"27","num_nodes":"7","size_leaf_vector":"1"}},{"base_weights":[6.424226E-1,-1.9220044E-1,1.6300188E0,2.8110472E-2,2.0040071E-1],"categories":[],"categories_nodes":[],"categories_segments":[],"categories_sizes":[],"default_left":[0,0,0,0,0],"id":94,"left_children":[1,-1,3,-1,-1],"loss_changes":[8.408889E2,0E0,3.2363205E2,0E0,0E0],"parents":[2147483647,0,0,2,2],"right_children":[2,-1,4,-1,-1],"split_conditions":[3.218182E1,-1.9220044E-1,6.600357E1,2.8110472E-2,2.0040071E-1],"split_indices":[2,0,2,0,0],"split_type":[0,0,0,0,0],"sum_hessian":[1.42E2,1.5E1,1.27E2,1.05E2,2.2E1],"tree_param":{"num_deleted":"0","num_feature":"27","num_nodes":"5","size_leaf_vector":"1"}},{"base_weights":[1.0948358E0,2.3212565E-1,2.0100561E-1,-4.8973612E-2,7.1468934E-2],"categories":[],"categories_nodes":[],"categories_segments":[],"categories_sizes":[],"default_left":[0,0,0,0,0],"id":95,"left_children":[1,3,-1,-1,-1],"loss_changes":[4.035838E2,2.489402E2,0E0,0E0,0E0],"parents":[2147483647,0,0,1,1],"right_children":[2,4,-1,-1,-1],"split_conditions":[7.6069046E1,5.1125E1,2.0100561E-1,-4.8973612E-2,7.1468934E-2],"split_indices":[3,8,0,0,0],"split_type":[0,0,0,0,0],"sum_hessian":[1.49E2,1.32E2,1.7E1,6.7E1,6.5E1],"tree_param":{"num_deleted":"0","num_feature":"27","num_nodes":"5","size_leaf_vector":"1"}},{"base_weights":[8.7827414E-1,2.3166966E0,-3.4313264E-1,1.5488693E-1,1.13622766E-4,-8.140049E-2,1.3989721E-1],"categories":[],"categories_nodes":[],"categories_segments":[],"categories_sizes":[],"default_left":[0,0,0,0,0,0,0],"id":96,"left_children":[1,3,5,-1,-1,-1,-1],"loss_changes":[2.743795E2,1.2329556E2,4.7737787E2,0E0,0E0,0E0,0E0],"parents":[2147483647,0,0,1,1,2,2],"right_children":[2,4,6,-1,-1,-1,-1],"split_conditions":[3.306536E1,1.2009526E1,4.7936363E1,1.5488693E-1,1.13622766E-4,-8.140049E-2,1.3989721E-1],"split_indices":[15,6,15,0,0,0,0],"split_type":[0,0,0,0,0,0,0],"sum_hessian":[1.26E2,5E1,7.6E1,3.2E1,1.8E1,6.1E1,1.5E1],"tree_param":{"num_deleted":"0","num_feature":"27","num_nodes":"7","size_leaf_vector":"1"}},{"base_weights":[-3.907792E-1,-9.8781425E-1,8.6876385E-2,6.59818E-2,-8.1320904E-2],"categories":[],"categories_nodes":[],"categories_segments":[],"categories_sizes":[],"default_left":[0,0,0,0,0],"id":97,"left_children":[1,3,-1,-1,-1],"loss_changes":[2.5467465E2,2.627908E2,0E0,0E0,0E0],"parents":[2147483647,0,0,1,1],"right_children":[2,4,-1,-1,-1],"split_conditions":[2.3328192E1,7.363095E-1,8.6876385E-2,6.59818E-2,-8.1320904E-2],"split_indices":[6,20,0,0,0],"split_type":[0,0,0,0,0],"sum_hessian":[1.54E2,1.29E2,2.5E1,2.3E1,1.06E2],"tree_param":{"num_deleted":"0","num_feature":"27","num_nodes":"5","size_leaf_vector":"1"}},{"base_weights":[-3.724078E-1,7.993505E-1,-1.7124821E0,1.2963016E-1,-1.1042544E-2,-1.5472373E-1,-1.1659014E-2],"categories":[],"categories_nodes":[],"categories_segments":[],"categories_sizes":[],"default_left":[0,0,0,0,0,0,0],"id":98,"left_children":[1,3,5,-1,-1,-1,-1],"loss_changes":[2.9837244E2,2.0591858E2,1.6010234E2,0E0,0E0,0E0,0E0],"parents":[2147483647,0,0,1,1,2,2],"right_children":[2,4,6,-1,-1,-1,-1],"split_conditions":[7.8932014E0,2.7307692E1,3.0604546E1,1.2963016E-1,-1.1042544E-2,-1.5472373E-1,-1.1659014E-2],"split_indices":[16,15,1,0,0,0,0],"split_type":[0,0,0,0,0,0,0],"sum_hessian":[1.52E2,8.5E1,6.7E1,2E1,6.5E1,2.3E1,4.4E1],"tree_param":{"num_deleted":"0","num_feature":"27","num_nodes":"7","size_leaf_vector":"1"}},{"base_weights":[-1.3593411E-1,-7.7250725E-1,1.2529214E-1,-8.094116E-2,5.9192844E-2],"categories":[],"categories_nodes":[],"categories_segments":[],"categories_sizes":[],"default_left":[0,0,0,0,0],"id":99,"left_children":[1,3,-1,-1,-1],"loss_changes":[3.2791364E2,2.9539795E2,0E0,0E0,0E0],"parents":[2147483647,0,0,1,1],"right_children":[2,4,-1,-1,-1],"split_conditions":[4.7666668E1,2.494382E-1,1.2529214E-1,-8.094116E-2,5.9192844E-2],"split_indices":[15,12,0,0,0],"split_type":[0,0,0,0,0],"sum_hessian":[1.53E2,1.35E2,1.8E1,9.7E1,3.8E1],"tree_param":{"num_deleted":"0","num_feature":"27","num_nodes":"5","size_leaf_vector":"1"}}]},"name":"gbtree"},"learner_model_param":{"base_score":"5.0028927E1","boost_from_average":"1","num_class":"0","num_feature":"27","num_target":"1"},"objective":{"name":"reg:squarederror","reg_loss_param":{"scale_pos_weight":"1"}}},"version":[2,1,4]}